===== Effectiveness =====
# validation data = 972760
# validation error = 2340
# true positive = 6581
# true negative = 964472
# false positive = 1707
# false negative = 633
Learned classification tree model:
 TreeEnsembleModel classifier with 64 trees

  Tree 0:
    If (feature 1101 <= 56.0)
     If (feature 1521 <= 63.0)
      If (feature 1562 <= 64.0)
       If (feature 1105 <= 61.0)
        If (feature 1545 <= 63.0)
         If (feature 1983 <= 66.0)
          If (feature 1566 <= 66.0)
           If (feature 1880 <= 53.0)
            If (feature 1165 <= 64.0)
             If (feature 1502 <= 71.0)
              Predict: 0.0
             Else (feature 1502 > 71.0)
              Predict: 0.0
            Else (feature 1165 > 64.0)
             If (feature 937 <= 50.0)
              Predict: 0.0
             Else (feature 937 > 50.0)
              Predict: 1.0
           Else (feature 1880 > 53.0)
            If (feature 1060 <= 44.0)
             If (feature 1984 <= 46.0)
              Predict: 0.0
             Else (feature 1984 > 46.0)
              Predict: 1.0
            Else (feature 1060 > 44.0)
             If (feature 1585 <= 30.0)
              Predict: 0.0
             Else (feature 1585 > 30.0)
              Predict: 1.0
          Else (feature 1566 > 66.0)
           If (feature 684 <= 4.0)
            If (feature 1581 <= 32.0)
             If (feature 1501 <= 53.0)
              Predict: 0.0
             Else (feature 1501 > 53.0)
              Predict: 1.0
            Else (feature 1581 > 32.0)
             If (feature 968 <= 6.0)
              Predict: 1.0
             Else (feature 968 > 6.0)
              Predict: 0.0
           Else (feature 684 > 4.0)
            If (feature 2027 <= 31.0)
             If (feature 1104 <= 42.0)
              Predict: 0.0
             Else (feature 1104 > 42.0)
              Predict: 1.0
            Else (feature 2027 > 31.0)
             If (feature 956 <= 19.0)
              Predict: 1.0
             Else (feature 956 > 19.0)
              Predict: 1.0
         Else (feature 1983 > 66.0)
          If (feature 1356 <= 30.0)
           If (feature 2884 <= 95.0)
            If (feature 1060 <= 44.0)
             If (feature 1627 <= 27.0)
              Predict: 0.0
             Else (feature 1627 > 27.0)
              Predict: 1.0
            Else (feature 1060 > 44.0)
             If (feature 2960 <= 5.0)
              Predict: 1.0
             Else (feature 2960 > 5.0)
              Predict: 1.0
           Else (feature 2884 > 95.0)
            If (feature 741 <= 24.0)
             If (feature 1156 <= 18.0)
              Predict: 0.0
             Else (feature 1156 > 18.0)
              Predict: 0.0
            Else (feature 741 > 24.0)
             If (feature 1984 <= 62.0)
              Predict: 0.0
             Else (feature 1984 > 62.0)
              Predict: 1.0
          Else (feature 1356 > 30.0)
           If (feature 2508 <= 36.0)
            If (feature 1101 <= 1.0)
             If (feature 2089 <= 0.0)
              Predict: 1.0
             Else (feature 2089 > 0.0)
              Predict: 0.0
            Else (feature 1101 > 1.0)
             If (feature 2774 <= 23.0)
              Predict: 1.0
             Else (feature 2774 > 23.0)
              Predict: 0.0
           Else (feature 2508 > 36.0)
            If (feature 2800 <= 50.0)
             Predict: 1.0
            Else (feature 2800 > 50.0)
             Predict: 0.0
        Else (feature 1545 > 63.0)
         If (feature 2027 <= 17.0)
          If (feature 1545 <= 75.0)
           If (feature 2046 <= 26.0)
            If (feature 619 <= 5.0)
             If (feature 1523 <= 35.0)
              Predict: 0.0
             Else (feature 1523 > 35.0)
              Predict: 0.0
            Else (feature 619 > 5.0)
             If (feature 1410 <= 33.0)
              Predict: 0.0
             Else (feature 1410 > 33.0)
              Predict: 1.0
           Else (feature 2046 > 26.0)
            If (feature 2086 <= 1.0)
             If (feature 1101 <= 4.0)
              Predict: 0.0
             Else (feature 1101 > 4.0)
              Predict: 1.0
            Else (feature 2086 > 1.0)
             If (feature 2091 <= 16.0)
              Predict: 1.0
             Else (feature 2091 > 16.0)
              Predict: 0.0
          Else (feature 1545 > 75.0)
           If (feature 1524 <= 23.0)
            If (feature 1567 <= 7.0)
             If (feature 1201 <= 29.0)
              Predict: 0.0
             Else (feature 1201 > 29.0)
              Predict: 1.0
            Else (feature 1567 > 7.0)
             If (feature 2866 <= 14.0)
              Predict: 0.0
             Else (feature 2866 > 14.0)
              Predict: 1.0
           Else (feature 1524 > 23.0)
            If (feature 2849 <= 38.0)
             If (feature 2427 <= 10.0)
              Predict: 1.0
             Else (feature 2427 > 10.0)
              Predict: 1.0
            Else (feature 2849 > 38.0)
             If (feature 637 <= 0.0)
              Predict: 0.0
             Else (feature 637 > 0.0)
              Predict: 1.0
         Else (feature 2027 > 17.0)
          If (feature 2911 <= 68.0)
           If (feature 1566 <= 30.0)
            If (feature 981 <= 26.0)
             If (feature 2027 <= 69.0)
              Predict: 0.0
             Else (feature 2027 > 69.0)
              Predict: 1.0
            Else (feature 981 > 26.0)
             If (feature 712 <= 46.0)
              Predict: 1.0
             Else (feature 712 > 46.0)
              Predict: 0.0
           Else (feature 1566 > 30.0)
            If (feature 1502 <= 68.0)
             If (feature 2051 <= 1.0)
              Predict: 1.0
             Else (feature 2051 > 1.0)
              Predict: 1.0
            Else (feature 1502 > 68.0)
             If (feature 2738 <= 180.0)
              Predict: 1.0
             Else (feature 2738 > 180.0)
              Predict: 0.0
          Else (feature 2911 > 68.0)
           If (feature 1985 <= 65.0)
            If (feature 515 <= 42.0)
             If (feature 2140 <= 71.0)
              Predict: 0.0
             Else (feature 2140 > 71.0)
              Predict: 1.0
            Else (feature 515 > 42.0)
             Predict: 1.0
           Else (feature 1985 > 65.0)
            If (feature 1587 <= 82.0)
             If (feature 2819 <= 0.0)
              Predict: 0.0
             Else (feature 2819 > 0.0)
              Predict: 1.0
            Else (feature 1587 > 82.0)
             If (feature 1977 <= 16.0)
              Predict: 1.0
             Else (feature 1977 > 16.0)
              Predict: 0.0
       Else (feature 1105 > 61.0)
        If (feature 2447 <= 34.0)
         If (feature 2045 <= 26.0)
          If (feature 1963 <= 37.0)
           If (feature 1164 <= 38.0)
            If (feature 640 <= 16.0)
             If (feature 1964 <= 20.0)
              Predict: 0.0
             Else (feature 1964 > 20.0)
              Predict: 0.0
            Else (feature 640 > 16.0)
             If (feature 538 <= 3.0)
              Predict: 0.0
             Else (feature 538 > 3.0)
              Predict: 0.0
           Else (feature 1164 > 38.0)
            If (feature 306 <= 19.0)
             If (feature 2007 <= 31.0)
              Predict: 0.0
             Else (feature 2007 > 31.0)
              Predict: 1.0
            Else (feature 306 > 19.0)
             If (feature 642 <= 52.0)
              Predict: 0.0
             Else (feature 642 > 52.0)
              Predict: 1.0
          Else (feature 1963 > 37.0)
           If (feature 601 <= 51.0)
            If (feature 1104 <= 3.0)
             If (feature 2595 <= 5.0)
              Predict: 0.0
             Else (feature 2595 > 5.0)
              Predict: 1.0
            Else (feature 1104 > 3.0)
             If (feature 202 <= 132.0)
              Predict: 1.0
             Else (feature 202 > 132.0)
              Predict: 0.0
           Else (feature 601 > 51.0)
            If (feature 436 <= 6.0)
             If (feature 1600 <= 0.0)
              Predict: 0.0
             Else (feature 1600 > 0.0)
              Predict: 1.0
            Else (feature 436 > 6.0)
             If (feature 3014 <= 24.0)
              Predict: 0.0
             Else (feature 3014 > 24.0)
              Predict: 1.0
         Else (feature 2045 > 26.0)
          If (feature 2005 <= 23.0)
           If (feature 1191 <= 21.0)
            If (feature 668 <= 41.0)
             If (feature 1143 <= 58.0)
              Predict: 0.0
             Else (feature 1143 > 58.0)
              Predict: 1.0
            Else (feature 668 > 41.0)
             If (feature 7 <= 11.0)
              Predict: 1.0
             Else (feature 7 > 11.0)
              Predict: 0.0
           Else (feature 1191 > 21.0)
            If (feature 837 <= 43.0)
             If (feature 679 <= 39.0)
              Predict: 0.0
             Else (feature 679 > 39.0)
              Predict: 1.0
            Else (feature 837 > 43.0)
             Predict: 1.0
          Else (feature 2005 > 23.0)
           If (feature 114 <= 74.0)
            If (feature 1986 <= 2.0)
             If (feature 1471 <= 6.0)
              Predict: 0.0
             Else (feature 1471 > 6.0)
              Predict: 1.0
            Else (feature 1986 > 2.0)
             If (feature 1955 <= 39.0)
              Predict: 1.0
             Else (feature 1955 > 39.0)
              Predict: 0.0
           Else (feature 114 > 74.0)
            Predict: 0.0
        Else (feature 2447 > 34.0)
         If (feature 2006 <= 38.0)
          If (feature 2485 <= 20.0)
           If (feature 1985 <= 85.0)
            If (feature 1920 <= 10.0)
             If (feature 1143 <= 20.0)
              Predict: 0.0
             Else (feature 1143 > 20.0)
              Predict: 1.0
            Else (feature 1920 > 10.0)
             If (feature 1103 <= 22.0)
              Predict: 0.0
             Else (feature 1103 > 22.0)
              Predict: 1.0
           Else (feature 1985 > 85.0)
            If (feature 1007 <= 8.0)
             If (feature 1233 <= 50.0)
              Predict: 1.0
             Else (feature 1233 > 50.0)
              Predict: 0.0
            Else (feature 1007 > 8.0)
             If (feature 2919 <= 0.0)
              Predict: 1.0
             Else (feature 2919 > 0.0)
              Predict: 0.0
          Else (feature 2485 > 20.0)
           If (feature 2026 <= 0.0)
            Predict: 0.0
           Else (feature 2026 > 0.0)
            If (feature 2657 <= 41.0)
             If (feature 2419 <= 8.0)
              Predict: 1.0
             Else (feature 2419 > 8.0)
              Predict: 1.0
            Else (feature 2657 > 41.0)
             Predict: 0.0
         Else (feature 2006 > 38.0)
          If (feature 2807 <= 173.0)
           If (feature 2845 <= 179.0)
            If (feature 690 <= 201.0)
             If (feature 1104 <= 86.0)
              Predict: 1.0
             Else (feature 1104 > 86.0)
              Predict: 1.0
            Else (feature 690 > 201.0)
             Predict: 0.0
           Else (feature 2845 > 179.0)
            If (feature 1939 <= 2.0)
             If (feature 2171 <= 20.0)
              Predict: 1.0
             Else (feature 2171 > 20.0)
              Predict: 0.0
            Else (feature 1939 > 2.0)
             If (feature 791 <= 0.0)
              Predict: 1.0
             Else (feature 791 > 0.0)
              Predict: 0.0
          Else (feature 2807 > 173.0)
           Predict: 0.0
      Else (feature 1562 > 64.0)
       If (feature 1145 <= 34.0)
        If (feature 1944 <= 30.0)
         If (feature 1562 <= 86.0)
          If (feature 1983 <= 59.0)
           If (feature 1122 <= 46.0)
            If (feature 1568 <= 31.0)
             If (feature 1527 <= 40.0)
              Predict: 0.0
             Else (feature 1527 > 40.0)
              Predict: 0.0
            Else (feature 1568 > 31.0)
             If (feature 2533 <= 13.0)
              Predict: 1.0
             Else (feature 2533 > 13.0)
              Predict: 0.0
           Else (feature 1122 > 46.0)
            If (feature 1623 <= 8.0)
             If (feature 1915 <= 9.0)
              Predict: 1.0
             Else (feature 1915 > 9.0)
              Predict: 0.0
            Else (feature 1623 > 8.0)
             If (feature 638 <= 2.0)
              Predict: 1.0
             Else (feature 638 > 2.0)
              Predict: 0.0
          Else (feature 1983 > 59.0)
           If (feature 1225 <= 28.0)
            If (feature 2842 <= 93.0)
             If (feature 2862 <= 139.0)
              Predict: 1.0
             Else (feature 2862 > 139.0)
              Predict: 0.0
            Else (feature 2842 > 93.0)
             If (feature 1520 <= 86.0)
              Predict: 0.0
             Else (feature 1520 > 86.0)
              Predict: 1.0
           Else (feature 1225 > 28.0)
            If (feature 481 <= 10.0)
             If (feature 1548 <= 27.0)
              Predict: 0.0
             Else (feature 1548 > 27.0)
              Predict: 1.0
            Else (feature 481 > 10.0)
             Predict: 1.0
         Else (feature 1562 > 86.0)
          If (feature 216 <= 59.0)
           If (feature 2448 <= 20.0)
            If (feature 2884 <= 94.0)
             If (feature 1565 <= 56.0)
              Predict: 1.0
             Else (feature 1565 > 56.0)
              Predict: 1.0
            Else (feature 2884 > 94.0)
             If (feature 1339 <= 22.0)
              Predict: 0.0
             Else (feature 1339 > 22.0)
              Predict: 1.0
           Else (feature 2448 > 20.0)
            If (feature 2066 <= 55.0)
             If (feature 2675 <= 16.0)
              Predict: 1.0
             Else (feature 2675 > 16.0)
              Predict: 0.0
            Else (feature 2066 > 55.0)
             If (feature 7 <= 0.0)
              Predict: 0.0
             Else (feature 7 > 0.0)
              Predict: 1.0
          Else (feature 216 > 59.0)
           If (feature 1603 <= 6.0)
            If (feature 1955 <= 4.0)
             Predict: 0.0
            Else (feature 1955 > 4.0)
             Predict: 1.0
           Else (feature 1603 > 6.0)
            If (feature 1986 <= 30.0)
             If (feature 1743 <= 39.0)
              Predict: 0.0
             Else (feature 1743 > 39.0)
              Predict: 1.0
            Else (feature 1986 > 30.0)
             Predict: 1.0
        Else (feature 1944 > 30.0)
         If (feature 2736 <= 12.0)
          If (feature 1874 <= 24.0)
           If (feature 2030 <= 60.0)
            If (feature 507 <= 19.0)
             If (feature 1512 <= 12.0)
              Predict: 1.0
             Else (feature 1512 > 12.0)
              Predict: 1.0
            Else (feature 507 > 19.0)
             If (feature 2919 <= 0.0)
              Predict: 1.0
             Else (feature 2919 > 0.0)
              Predict: 0.0
           Else (feature 2030 > 60.0)
            If (feature 1095 <= 18.0)
             Predict: 0.0
            Else (feature 1095 > 18.0)
             Predict: 1.0
          Else (feature 1874 > 24.0)
           If (feature 1564 <= 31.0)
            Predict: 0.0
           Else (feature 1564 > 31.0)
            If (feature 1922 <= 8.0)
             Predict: 1.0
            Else (feature 1922 > 8.0)
             Predict: 0.0
         Else (feature 2736 > 12.0)
          If (feature 640 <= 16.0)
           If (feature 1999 <= 20.0)
            If (feature 497 <= 38.0)
             If (feature 1025 <= 38.0)
              Predict: 0.0
             Else (feature 1025 > 38.0)
              Predict: 1.0
            Else (feature 497 > 38.0)
             If (feature 2876 <= 5.0)
              Predict: 1.0
             Else (feature 2876 > 5.0)
              Predict: 0.0
           Else (feature 1999 > 20.0)
            Predict: 1.0
          Else (feature 640 > 16.0)
           If (feature 2690 <= 12.0)
            Predict: 1.0
           Else (feature 2690 > 12.0)
            Predict: 0.0
       Else (feature 1145 > 34.0)
        If (feature 2818 <= 69.0)
         If (feature 2506 <= 61.0)
          If (feature 1981 <= 4.0)
           If (feature 752 <= 33.0)
            If (feature 1564 <= 14.0)
             If (feature 698 <= 15.0)
              Predict: 1.0
             Else (feature 698 > 15.0)
              Predict: 0.0
            Else (feature 1564 > 14.0)
             If (feature 1524 <= 0.0)
              Predict: 1.0
             Else (feature 1524 > 0.0)
              Predict: 1.0
           Else (feature 752 > 33.0)
            If (feature 2076 <= 13.0)
             Predict: 0.0
            Else (feature 2076 > 13.0)
             Predict: 1.0
          Else (feature 1981 > 4.0)
           If (feature 303 <= 248.0)
            If (feature 2823 <= 37.0)
             If (feature 1328 <= 82.0)
              Predict: 1.0
             Else (feature 1328 > 82.0)
              Predict: 1.0
            Else (feature 2823 > 37.0)
             If (feature 2003 <= 108.0)
              Predict: 0.0
             Else (feature 2003 > 108.0)
              Predict: 1.0
           Else (feature 303 > 248.0)
            Predict: 0.0
         Else (feature 2506 > 61.0)
          If (feature 1117 <= 8.0)
           If (feature 2574 <= 13.0)
            If (feature 1429 <= 17.0)
             If (feature 2646 <= 14.0)
              Predict: 1.0
             Else (feature 2646 > 14.0)
              Predict: 0.0
            Else (feature 1429 > 17.0)
             If (feature 2331 <= 1.0)
              Predict: 0.0
             Else (feature 2331 > 1.0)
              Predict: 1.0
           Else (feature 2574 > 13.0)
            Predict: 0.0
          Else (feature 1117 > 8.0)
           If (feature 1986 <= 16.0)
            Predict: 0.0
           Else (feature 1986 > 16.0)
            If (feature 2445 <= 4.0)
             Predict: 0.0
            Else (feature 2445 > 4.0)
             Predict: 1.0
        Else (feature 2818 > 69.0)
         If (feature 2843 <= 6.0)
          Predict: 0.0
         Else (feature 2843 > 6.0)
          If (feature 2660 <= 1.0)
           Predict: 1.0
          Else (feature 2660 > 1.0)
           If (feature 2630 <= 1.0)
            Predict: 0.0
           Else (feature 2630 > 1.0)
            Predict: 1.0
     Else (feature 1521 > 63.0)
      If (feature 642 <= 14.0)
       If (feature 1039 <= 5.0)
        If (feature 1985 <= 30.0)
         If (feature 1856 <= 44.0)
          If (feature 1962 <= 67.0)
           If (feature 1538 <= 51.0)
            If (feature 1677 <= 56.0)
             If (feature 1430 <= 42.0)
              Predict: 0.0
             Else (feature 1430 > 42.0)
              Predict: 1.0
            Else (feature 1677 > 56.0)
             Predict: 1.0
           Else (feature 1538 > 51.0)
            If (feature 139 <= 2.0)
             If (feature 1620 <= 0.0)
              Predict: 1.0
             Else (feature 1620 > 0.0)
              Predict: 0.0
            Else (feature 139 > 2.0)
             If (feature 2764 <= 5.0)
              Predict: 1.0
             Else (feature 2764 > 5.0)
              Predict: 0.0
          Else (feature 1962 > 67.0)
           If (feature 257 <= 24.0)
            If (feature 66 <= 7.0)
             If (feature 1619 <= 0.0)
              Predict: 1.0
             Else (feature 1619 > 0.0)
              Predict: 1.0
            Else (feature 66 > 7.0)
             If (feature 2019 <= 1.0)
              Predict: 1.0
             Else (feature 2019 > 1.0)
              Predict: 0.0
           Else (feature 257 > 24.0)
            Predict: 0.0
         Else (feature 1856 > 44.0)
          If (feature 2795 <= 9.0)
           If (feature 2760 <= 117.0)
            If (feature 2663 <= 17.0)
             Predict: 1.0
            Else (feature 2663 > 17.0)
             Predict: 0.0
           Else (feature 2760 > 117.0)
            Predict: 0.0
          Else (feature 2795 > 9.0)
           If (feature 2373 <= 58.0)
            Predict: 0.0
           Else (feature 2373 > 58.0)
            Predict: 1.0
        Else (feature 1985 > 30.0)
         If (feature 450 <= 12.0)
          If (feature 723 <= 31.0)
           If (feature 2834 <= 34.0)
            If (feature 1332 <= 20.0)
             If (feature 2191 <= 4.0)
              Predict: 1.0
             Else (feature 2191 > 4.0)
              Predict: 1.0
            Else (feature 1332 > 20.0)
             If (feature 1766 <= 0.0)
              Predict: 0.0
             Else (feature 1766 > 0.0)
              Predict: 1.0
           Else (feature 2834 > 34.0)
            If (feature 2675 <= 0.0)
             If (feature 1379 <= 0.0)
              Predict: 1.0
             Else (feature 1379 > 0.0)
              Predict: 0.0
            Else (feature 2675 > 0.0)
             Predict: 0.0
          Else (feature 723 > 31.0)
           If (feature 213 <= 0.0)
            Predict: 1.0
           Else (feature 213 > 0.0)
            Predict: 0.0
         Else (feature 450 > 12.0)
          If (feature 856 <= 0.0)
           If (feature 2340 <= 44.0)
            Predict: 0.0
           Else (feature 2340 > 44.0)
            Predict: 1.0
          Else (feature 856 > 0.0)
           If (feature 379 <= 4.0)
            Predict: 1.0
           Else (feature 379 > 4.0)
            Predict: 0.0
       Else (feature 1039 > 5.0)
        If (feature 2404 <= 36.0)
         If (feature 1522 <= 21.0)
          If (feature 1628 <= 33.0)
           If (feature 1205 <= 26.0)
            If (feature 783 <= 37.0)
             If (feature 1588 <= 32.0)
              Predict: 0.0
             Else (feature 1588 > 32.0)
              Predict: 1.0
            Else (feature 783 > 37.0)
             If (feature 2652 <= 5.0)
              Predict: 1.0
             Else (feature 2652 > 5.0)
              Predict: 0.0
           Else (feature 1205 > 26.0)
            If (feature 216 <= 44.0)
             If (feature 307 <= 13.0)
              Predict: 1.0
             Else (feature 307 > 13.0)
              Predict: 0.0
            Else (feature 216 > 44.0)
             Predict: 0.0
          Else (feature 1628 > 33.0)
           If (feature 825 <= 15.0)
            If (feature 1211 <= 17.0)
             If (feature 1101 <= 0.0)
              Predict: 0.0
             Else (feature 1101 > 0.0)
              Predict: 1.0
            Else (feature 1211 > 17.0)
             If (feature 2869 <= 0.0)
              Predict: 0.0
             Else (feature 2869 > 0.0)
              Predict: 1.0
           Else (feature 825 > 15.0)
            Predict: 0.0
         Else (feature 1522 > 21.0)
          If (feature 1501 <= 6.0)
           If (feature 1564 <= 50.0)
            If (feature 2408 <= 10.0)
             If (feature 914 <= 14.0)
              Predict: 0.0
             Else (feature 914 > 14.0)
              Predict: 1.0
            Else (feature 2408 > 10.0)
             If (feature 2661 <= 1.0)
              Predict: 1.0
             Else (feature 2661 > 1.0)
              Predict: 0.0
           Else (feature 1564 > 50.0)
            Predict: 1.0
          Else (feature 1501 > 6.0)
           If (feature 195 <= 78.0)
            If (feature 1081 <= 6.0)
             If (feature 2873 <= 11.0)
              Predict: 1.0
             Else (feature 2873 > 11.0)
              Predict: 0.0
            Else (feature 1081 > 6.0)
             If (feature 191 <= 63.0)
              Predict: 1.0
             Else (feature 191 > 63.0)
              Predict: 0.0
           Else (feature 195 > 78.0)
            If (feature 682 <= 12.0)
             If (feature 1165 <= 14.0)
              Predict: 0.0
             Else (feature 1165 > 14.0)
              Predict: 1.0
            Else (feature 682 > 12.0)
             If (feature 238 <= 132.0)
              Predict: 1.0
             Else (feature 238 > 132.0)
              Predict: 0.0
        Else (feature 2404 > 36.0)
         If (feature 2 <= 111.0)
          If (feature 1850 <= 3.0)
           If (feature 2624 <= 98.0)
            If (feature 574 <= 73.0)
             If (feature 1428 <= 174.0)
              Predict: 1.0
             Else (feature 1428 > 174.0)
              Predict: 0.0
            Else (feature 574 > 73.0)
             If (feature 540 <= 1.0)
              Predict: 1.0
             Else (feature 540 > 1.0)
              Predict: 0.0
           Else (feature 2624 > 98.0)
            Predict: 0.0
          Else (feature 1850 > 3.0)
           If (feature 1500 <= 17.0)
            If (feature 1061 <= 15.0)
             If (feature 868 <= 3.0)
              Predict: 0.0
             Else (feature 868 > 3.0)
              Predict: 1.0
            Else (feature 1061 > 15.0)
             Predict: 1.0
           Else (feature 1500 > 17.0)
            If (feature 2758 <= 105.0)
             If (feature 2923 <= 101.0)
              Predict: 1.0
             Else (feature 2923 > 101.0)
              Predict: 0.0
            Else (feature 2758 > 105.0)
             If (feature 256 <= 9.0)
              Predict: 0.0
             Else (feature 256 > 9.0)
              Predict: 1.0
         Else (feature 2 > 111.0)
          If (feature 2251 <= 28.0)
           Predict: 0.0
          Else (feature 2251 > 28.0)
           Predict: 1.0
      Else (feature 642 > 14.0)
       If (feature 1565 <= 50.0)
        If (feature 1541 <= 59.0)
         If (feature 1503 <= 19.0)
          If (feature 1984 <= 33.0)
           If (feature 2828 <= 15.0)
            If (feature 2320 <= 25.0)
             If (feature 1871 <= 9.0)
              Predict: 0.0
             Else (feature 1871 > 9.0)
              Predict: 1.0
            Else (feature 2320 > 25.0)
             If (feature 1075 <= 21.0)
              Predict: 1.0
             Else (feature 1075 > 21.0)
              Predict: 0.0
           Else (feature 2828 > 15.0)
            If (feature 2699 <= 28.0)
             If (feature 776 <= 31.0)
              Predict: 0.0
             Else (feature 776 > 31.0)
              Predict: 1.0
            Else (feature 2699 > 28.0)
             Predict: 1.0
          Else (feature 1984 > 33.0)
           If (feature 294 <= 7.0)
            If (feature 1957 <= 19.0)
             If (feature 415 <= 40.0)
              Predict: 1.0
             Else (feature 415 > 40.0)
              Predict: 0.0
            Else (feature 1957 > 19.0)
             If (feature 1925 <= 1.0)
              Predict: 1.0
             Else (feature 1925 > 1.0)
              Predict: 0.0
           Else (feature 294 > 7.0)
            If (feature 25 <= 5.0)
             If (feature 2703 <= 19.0)
              Predict: 1.0
             Else (feature 2703 > 19.0)
              Predict: 0.0
            Else (feature 25 > 5.0)
             Predict: 0.0
         Else (feature 1503 > 19.0)
          If (feature 1225 <= 122.0)
           If (feature 556 <= 2.0)
            If (feature 2887 <= 71.0)
             If (feature 3057 <= 33.0)
              Predict: 1.0
             Else (feature 3057 > 33.0)
              Predict: 0.0
            Else (feature 2887 > 71.0)
             If (feature 3014 <= 0.0)
              Predict: 1.0
             Else (feature 3014 > 0.0)
              Predict: 0.0
           Else (feature 556 > 2.0)
            If (feature 195 <= 83.0)
             If (feature 48 <= 17.0)
              Predict: 1.0
             Else (feature 48 > 17.0)
              Predict: 0.0
            Else (feature 195 > 83.0)
             If (feature 862 <= 5.0)
              Predict: 0.0
             Else (feature 862 > 5.0)
              Predict: 1.0
          Else (feature 1225 > 122.0)
           Predict: 0.0
        Else (feature 1541 > 59.0)
         If (feature 1855 <= 34.0)
          If (feature 513 <= 86.0)
           If (feature 2296 <= 143.0)
            If (feature 2777 <= 46.0)
             If (feature 2255 <= 41.0)
              Predict: 1.0
             Else (feature 2255 > 41.0)
              Predict: 0.0
            Else (feature 2777 > 46.0)
             If (feature 6 <= 0.0)
              Predict: 1.0
             Else (feature 6 > 0.0)
              Predict: 0.0
           Else (feature 2296 > 143.0)
            Predict: 0.0
          Else (feature 513 > 86.0)
           Predict: 0.0
         Else (feature 1855 > 34.0)
          If (feature 2419 <= 23.0)
           If (feature 2056 <= 4.0)
            Predict: 1.0
           Else (feature 2056 > 4.0)
            If (feature 1208 <= 30.0)
             Predict: 0.0
            Else (feature 1208 > 30.0)
             Predict: 1.0
          Else (feature 2419 > 23.0)
           Predict: 0.0
       Else (feature 1565 > 50.0)
        If (feature 2910 <= 127.0)
         If (feature 1544 <= 58.0)
          If (feature 97 <= 20.0)
           If (feature 2815 <= 31.0)
            If (feature 1745 <= 18.0)
             If (feature 714 <= 58.0)
              Predict: 1.0
             Else (feature 714 > 58.0)
              Predict: 0.0
            Else (feature 1745 > 18.0)
             If (feature 519 <= 25.0)
              Predict: 0.0
             Else (feature 519 > 25.0)
              Predict: 1.0
           Else (feature 2815 > 31.0)
            If (feature 4 <= 13.0)
             Predict: 0.0
            Else (feature 4 > 13.0)
             Predict: 1.0
          Else (feature 97 > 20.0)
           If (feature 1019 <= 99.0)
            If (feature 1927 <= 8.0)
             Predict: 0.0
            Else (feature 1927 > 8.0)
             Predict: 1.0
           Else (feature 1019 > 99.0)
            Predict: 1.0
         Else (feature 1544 > 58.0)
          If (feature 2873 <= 153.0)
           If (feature 1140 <= 108.0)
            If (feature 2963 <= 183.0)
             If (feature 2900 <= 40.0)
              Predict: 1.0
             Else (feature 2900 > 40.0)
              Predict: 1.0
            Else (feature 2963 > 183.0)
             Predict: 0.0
           Else (feature 1140 > 108.0)
            If (feature 649 <= 0.0)
             Predict: 1.0
            Else (feature 649 > 0.0)
             Predict: 0.0
          Else (feature 2873 > 153.0)
           Predict: 0.0
        Else (feature 2910 > 127.0)
         If (feature 686 <= 13.0)
          If (feature 2801 <= 170.0)
           If (feature 1363 <= 24.0)
            Predict: 1.0
           Else (feature 1363 > 24.0)
            Predict: 0.0
          Else (feature 2801 > 170.0)
           Predict: 0.0
         Else (feature 686 > 13.0)
          If (feature 1692 <= 125.0)
           If (feature 1044 <= 24.0)
            Predict: 1.0
           Else (feature 1044 > 24.0)
            Predict: 0.0
          Else (feature 1692 > 125.0)
           Predict: 0.0
    Else (feature 1101 > 56.0)
     If (feature 640 <= 9.0)
      If (feature 2003 <= 19.0)
       If (feature 1839 <= 53.0)
        If (feature 1539 <= 35.0)
         If (feature 1143 <= 43.0)
          If (feature 661 <= 19.0)
           If (feature 1984 <= 22.0)
            If (feature 1123 <= 22.0)
             If (feature 1141 <= 46.0)
              Predict: 0.0
             Else (feature 1141 > 46.0)
              Predict: 0.0
            Else (feature 1123 > 22.0)
             If (feature 1345 <= 22.0)
              Predict: 0.0
             Else (feature 1345 > 22.0)
              Predict: 1.0
           Else (feature 1984 > 22.0)
            If (feature 1716 <= 17.0)
             If (feature 1504 <= 42.0)
              Predict: 0.0
             Else (feature 1504 > 42.0)
              Predict: 1.0
            Else (feature 1716 > 17.0)
             If (feature 2097 <= 10.0)
              Predict: 1.0
             Else (feature 2097 > 10.0)
              Predict: 0.0
          Else (feature 661 > 19.0)
           If (feature 1527 <= 26.0)
            If (feature 2002 <= 23.0)
             If (feature 266 <= 9.0)
              Predict: 0.0
             Else (feature 266 > 9.0)
              Predict: 1.0
            Else (feature 2002 > 23.0)
             If (feature 2732 <= 12.0)
              Predict: 1.0
             Else (feature 2732 > 12.0)
              Predict: 0.0
           Else (feature 1527 > 26.0)
            If (feature 1836 <= 4.0)
             If (feature 2655 <= 15.0)
              Predict: 1.0
             Else (feature 2655 > 15.0)
              Predict: 0.0
            Else (feature 1836 > 4.0)
             Predict: 0.0
         Else (feature 1143 > 43.0)
          If (feature 746 <= 9.0)
           If (feature 1607 <= 46.0)
            If (feature 2270 <= 0.0)
             If (feature 1836 <= 10.0)
              Predict: 0.0
             Else (feature 1836 > 10.0)
              Predict: 1.0
            Else (feature 2270 > 0.0)
             If (feature 2174 <= 65.0)
              Predict: 0.0
             Else (feature 2174 > 65.0)
              Predict: 1.0
           Else (feature 1607 > 46.0)
            Predict: 1.0
          Else (feature 746 > 9.0)
           If (feature 1878 <= 8.0)
            If (feature 2004 <= 31.0)
             If (feature 1371 <= 6.0)
              Predict: 0.0
             Else (feature 1371 > 6.0)
              Predict: 1.0
            Else (feature 2004 > 31.0)
             If (feature 1106 <= 27.0)
              Predict: 1.0
             Else (feature 1106 > 27.0)
              Predict: 0.0
           Else (feature 1878 > 8.0)
            If (feature 2145 <= 36.0)
             Predict: 1.0
            Else (feature 2145 > 36.0)
             Predict: 0.0
        Else (feature 1539 > 35.0)
         If (feature 379 <= 12.0)
          If (feature 453 <= 10.0)
           If (feature 1247 <= 94.0)
            If (feature 3042 <= 35.0)
             If (feature 2905 <= 37.0)
              Predict: 1.0
             Else (feature 2905 > 37.0)
              Predict: 0.0
            Else (feature 3042 > 35.0)
             Predict: 0.0
           Else (feature 1247 > 94.0)
            Predict: 0.0
          Else (feature 453 > 10.0)
           If (feature 1557 <= 33.0)
            If (feature 662 <= 25.0)
             Predict: 0.0
            Else (feature 662 > 25.0)
             Predict: 1.0
           Else (feature 1557 > 33.0)
            Predict: 1.0
         Else (feature 379 > 12.0)
          If (feature 1048 <= 23.0)
           Predict: 0.0
          Else (feature 1048 > 23.0)
           Predict: 1.0
       Else (feature 1839 > 53.0)
        If (feature 2654 <= 22.0)
         Predict: 1.0
        Else (feature 2654 > 22.0)
         Predict: 0.0
      Else (feature 2003 > 19.0)
       If (feature 1122 <= 54.0)
        If (feature 979 <= 21.0)
         If (feature 1330 <= 6.0)
          If (feature 2904 <= 45.0)
           If (feature 1523 <= 46.0)
            If (feature 1498 <= 26.0)
             If (feature 2005 <= 35.0)
              Predict: 0.0
             Else (feature 2005 > 35.0)
              Predict: 1.0
            Else (feature 1498 > 26.0)
             If (feature 95 <= 6.0)
              Predict: 1.0
             Else (feature 95 > 6.0)
              Predict: 0.0
           Else (feature 1523 > 46.0)
            If (feature 1339 <= 48.0)
             Predict: 1.0
            Else (feature 1339 > 48.0)
             If (feature 2128 <= 9.0)
              Predict: 0.0
             Else (feature 2128 > 9.0)
              Predict: 1.0
          Else (feature 2904 > 45.0)
           If (feature 651 <= 17.0)
            If (feature 16 <= 14.0)
             If (feature 154 <= 45.0)
              Predict: 0.0
             Else (feature 154 > 45.0)
              Predict: 1.0
            Else (feature 16 > 14.0)
             If (feature 2269 <= 0.0)
              Predict: 1.0
             Else (feature 2269 > 0.0)
              Predict: 0.0
           Else (feature 651 > 17.0)
            Predict: 1.0
         Else (feature 1330 > 6.0)
          If (feature 2887 <= 14.0)
           If (feature 1648 <= 55.0)
            If (feature 2784 <= 51.0)
             If (feature 1971 <= 26.0)
              Predict: 0.0
             Else (feature 1971 > 26.0)
              Predict: 1.0
            Else (feature 2784 > 51.0)
             Predict: 1.0
           Else (feature 1648 > 55.0)
            If (feature 1522 <= 24.0)
             Predict: 0.0
            Else (feature 1522 > 24.0)
             Predict: 1.0
          Else (feature 2887 > 14.0)
           If (feature 2841 <= 0.0)
            If (feature 85 <= 0.0)
             Predict: 1.0
            Else (feature 85 > 0.0)
             Predict: 0.0
           Else (feature 2841 > 0.0)
            If (feature 400 <= 0.0)
             If (feature 1105 <= 0.0)
              Predict: 0.0
             Else (feature 1105 > 0.0)
              Predict: 1.0
            Else (feature 400 > 0.0)
             If (feature 2910 <= 55.0)
              Predict: 0.0
             Else (feature 2910 > 55.0)
              Predict: 1.0
        Else (feature 979 > 21.0)
         If (feature 92 <= 47.0)
          If (feature 141 <= 44.0)
           If (feature 2493 <= 15.0)
            If (feature 1008 <= 23.0)
             If (feature 1475 <= 12.0)
              Predict: 1.0
             Else (feature 1475 > 12.0)
              Predict: 1.0
            Else (feature 1008 > 23.0)
             If (feature 1358 <= 6.0)
              Predict: 0.0
             Else (feature 1358 > 6.0)
              Predict: 1.0
           Else (feature 2493 > 15.0)
            If (feature 2044 <= 5.0)
             Predict: 0.0
            Else (feature 2044 > 5.0)
             Predict: 1.0
          Else (feature 141 > 44.0)
           Predict: 0.0
         Else (feature 92 > 47.0)
          If (feature 2627 <= 1.0)
           Predict: 0.0
          Else (feature 2627 > 1.0)
           Predict: 1.0
       Else (feature 1122 > 54.0)
        If (feature 2881 <= 171.0)
         If (feature 751 <= 4.0)
          If (feature 2354 <= 25.0)
           If (feature 637 <= 117.0)
            If (feature 1584 <= 13.0)
             If (feature 1856 <= 20.0)
              Predict: 1.0
             Else (feature 1856 > 20.0)
              Predict: 0.0
            Else (feature 1584 > 13.0)
             If (feature 959 <= 0.0)
              Predict: 1.0
             Else (feature 959 > 0.0)
              Predict: 1.0
           Else (feature 637 > 117.0)
            If (feature 71 <= 21.0)
             If (feature 1315 <= 0.0)
              Predict: 0.0
             Else (feature 1315 > 0.0)
              Predict: 1.0
            Else (feature 71 > 21.0)
             Predict: 0.0
          Else (feature 2354 > 25.0)
           If (feature 2549 <= 2.0)
            If (feature 1543 <= 0.0)
             Predict: 0.0
            Else (feature 1543 > 0.0)
             If (feature 2835 <= 0.0)
              Predict: 0.0
             Else (feature 2835 > 0.0)
              Predict: 1.0
           Else (feature 2549 > 2.0)
            If (feature 2730 <= 35.0)
             If (feature 293 <= 13.0)
              Predict: 0.0
             Else (feature 293 > 13.0)
              Predict: 1.0
            Else (feature 2730 > 35.0)
             Predict: 1.0
         Else (feature 751 > 4.0)
          If (feature 883 <= 120.0)
           If (feature 2597 <= 87.0)
            If (feature 387 <= 157.0)
             If (feature 2732 <= 26.0)
              Predict: 1.0
             Else (feature 2732 > 26.0)
              Predict: 1.0
            Else (feature 387 > 157.0)
             Predict: 0.0
           Else (feature 2597 > 87.0)
            If (feature 364 <= 0.0)
             Predict: 0.0
            Else (feature 364 > 0.0)
             Predict: 1.0
          Else (feature 883 > 120.0)
           Predict: 0.0
        Else (feature 2881 > 171.0)
         Predict: 0.0
     Else (feature 640 > 9.0)
      If (feature 2404 <= 10.0)
       If (feature 1480 <= 37.0)
        If (feature 1541 <= 57.0)
         If (feature 1946 <= 24.0)
          If (feature 1965 <= 40.0)
           If (feature 1565 <= 50.0)
            If (feature 643 <= 48.0)
             If (feature 1080 <= 24.0)
              Predict: 0.0
             Else (feature 1080 > 24.0)
              Predict: 0.0
            Else (feature 643 > 48.0)
             If (feature 203 <= 80.0)
              Predict: 1.0
             Else (feature 203 > 80.0)
              Predict: 0.0
           Else (feature 1565 > 50.0)
            If (feature 2840 <= 2.0)
             If (feature 302 <= 120.0)
              Predict: 1.0
             Else (feature 302 > 120.0)
              Predict: 0.0
            Else (feature 2840 > 2.0)
             If (feature 2802 <= 29.0)
              Predict: 1.0
             Else (feature 2802 > 29.0)
              Predict: 0.0
          Else (feature 1965 > 40.0)
           If (feature 933 <= 132.0)
            If (feature 100 <= 35.0)
             If (feature 179 <= 94.0)
              Predict: 1.0
             Else (feature 179 > 94.0)
              Predict: 0.0
            Else (feature 100 > 35.0)
             If (feature 1585 <= 58.0)
              Predict: 0.0
             Else (feature 1585 > 58.0)
              Predict: 1.0
           Else (feature 933 > 132.0)
            Predict: 0.0
         Else (feature 1946 > 24.0)
          If (feature 485 <= 9.0)
           If (feature 62 <= 30.0)
            If (feature 97 <= 220.0)
             If (feature 2166 <= 151.0)
              Predict: 1.0
             Else (feature 2166 > 151.0)
              Predict: 0.0
            Else (feature 97 > 220.0)
             Predict: 0.0
           Else (feature 62 > 30.0)
            If (feature 1383 <= 0.0)
             Predict: 0.0
            Else (feature 1383 > 0.0)
             If (feature 2022 <= 10.0)
              Predict: 1.0
             Else (feature 2022 > 10.0)
              Predict: 0.0
          Else (feature 485 > 9.0)
           If (feature 662 <= 1.0)
            Predict: 0.0
           Else (feature 662 > 1.0)
            If (feature 791 <= 0.0)
             If (feature 195 <= 0.0)
              Predict: 1.0
             Else (feature 195 > 0.0)
              Predict: 0.0
            Else (feature 791 > 0.0)
             Predict: 1.0
        Else (feature 1541 > 57.0)
         If (feature 2529 <= 100.0)
          If (feature 615 <= 165.0)
           If (feature 1150 <= 18.0)
            If (feature 682 <= 0.0)
             If (feature 113 <= 85.0)
              Predict: 1.0
             Else (feature 113 > 85.0)
              Predict: 0.0
            Else (feature 682 > 0.0)
             If (feature 2840 <= 163.0)
              Predict: 1.0
             Else (feature 2840 > 163.0)
              Predict: 0.0
           Else (feature 1150 > 18.0)
            If (feature 400 <= 22.0)
             Predict: 1.0
            Else (feature 400 > 22.0)
             If (feature 1981 <= 0.0)
              Predict: 0.0
             Else (feature 1981 > 0.0)
              Predict: 1.0
          Else (feature 615 > 165.0)
           If (feature 259 <= 27.0)
            If (feature 492 <= 21.0)
             Predict: 1.0
            Else (feature 492 > 21.0)
             Predict: 0.0
           Else (feature 259 > 27.0)
            If (feature 1311 <= 13.0)
             Predict: 0.0
            Else (feature 1311 > 13.0)
             Predict: 1.0
         Else (feature 2529 > 100.0)
          If (feature 1470 <= 2.0)
           If (feature 668 <= 6.0)
            If (feature 294 <= 21.0)
             Predict: 1.0
            Else (feature 294 > 21.0)
             Predict: 0.0
           Else (feature 668 > 6.0)
            Predict: 0.0
          Else (feature 1470 > 2.0)
           If (feature 237 <= 13.0)
            If (feature 1542 <= 198.0)
             Predict: 0.0
            Else (feature 1542 > 198.0)
             Predict: 1.0
           Else (feature 237 > 13.0)
            Predict: 1.0
       Else (feature 1480 > 37.0)
        If (feature 2478 <= 188.0)
         If (feature 221 <= 1.0)
          If (feature 116 <= 159.0)
           If (feature 2028 <= 0.0)
            If (feature 113 <= 91.0)
             If (feature 2717 <= 84.0)
              Predict: 1.0
             Else (feature 2717 > 84.0)
              Predict: 0.0
            Else (feature 113 > 91.0)
             Predict: 0.0
           Else (feature 2028 > 0.0)
            If (feature 1142 <= 4.0)
             If (feature 1458 <= 65.0)
              Predict: 0.0
             Else (feature 1458 > 65.0)
              Predict: 1.0
            Else (feature 1142 > 4.0)
             If (feature 340 <= 6.0)
              Predict: 1.0
             Else (feature 340 > 6.0)
              Predict: 1.0
          Else (feature 116 > 159.0)
           Predict: 0.0
         Else (feature 221 > 1.0)
          If (feature 90 <= 107.0)
           If (feature 5 <= 19.0)
            If (feature 115 <= 118.0)
             If (feature 1465 <= 169.0)
              Predict: 1.0
             Else (feature 1465 > 169.0)
              Predict: 0.0
            Else (feature 115 > 118.0)
             If (feature 1079 <= 2.0)
              Predict: 0.0
             Else (feature 1079 > 2.0)
              Predict: 1.0
           Else (feature 5 > 19.0)
            If (feature 601 <= 43.0)
             If (feature 1846 <= 16.0)
              Predict: 1.0
             Else (feature 1846 > 16.0)
              Predict: 0.0
            Else (feature 601 > 43.0)
             If (feature 2997 <= 4.0)
              Predict: 0.0
             Else (feature 2997 > 4.0)
              Predict: 1.0
          Else (feature 90 > 107.0)
           If (feature 486 <= 5.0)
            Predict: 0.0
           Else (feature 486 > 5.0)
            Predict: 1.0
        Else (feature 2478 > 188.0)
         Predict: 0.0
      Else (feature 2404 > 10.0)
       If (feature 1081 <= 43.0)
        If (feature 1649 <= 60.0)
         If (feature 1546 <= 49.0)
          If (feature 1583 <= 21.0)
           If (feature 2423 <= 17.0)
            If (feature 1100 <= 27.0)
             If (feature 1609 <= 36.0)
              Predict: 0.0
             Else (feature 1609 > 36.0)
              Predict: 1.0
            Else (feature 1100 > 27.0)
             If (feature 1002 <= 2.0)
              Predict: 1.0
             Else (feature 1002 > 2.0)
              Predict: 0.0
           Else (feature 2423 > 17.0)
            If (feature 829 <= 3.0)
             If (feature 1562 <= 13.0)
              Predict: 0.0
             Else (feature 1562 > 13.0)
              Predict: 1.0
            Else (feature 829 > 3.0)
             If (feature 1095 <= 0.0)
              Predict: 1.0
             Else (feature 1095 > 0.0)
              Predict: 0.0
          Else (feature 1583 > 21.0)
           If (feature 217 <= 138.0)
            If (feature 1163 <= 70.0)
             If (feature 1851 <= 11.0)
              Predict: 1.0
             Else (feature 1851 > 11.0)
              Predict: 0.0
            Else (feature 1163 > 70.0)
             If (feature 1558 <= 75.0)
              Predict: 1.0
             Else (feature 1558 > 75.0)
              Predict: 0.0
           Else (feature 217 > 138.0)
            If (feature 187 <= 19.0)
             If (feature 856 <= 23.0)
              Predict: 0.0
             Else (feature 856 > 23.0)
              Predict: 1.0
            Else (feature 187 > 19.0)
             Predict: 1.0
         Else (feature 1546 > 49.0)
          If (feature 200 <= 120.0)
           If (feature 430 <= 59.0)
            If (feature 2908 <= 220.0)
             If (feature 705 <= 168.0)
              Predict: 1.0
             Else (feature 705 > 168.0)
              Predict: 0.0
            Else (feature 2908 > 220.0)
             Predict: 0.0
           Else (feature 430 > 59.0)
            Predict: 0.0
          Else (feature 200 > 120.0)
           If (feature 1576 <= 2.0)
            Predict: 0.0
           Else (feature 1576 > 2.0)
            Predict: 1.0
        Else (feature 1649 > 60.0)
         If (feature 1542 <= 15.0)
          If (feature 1583 <= 24.0)
           Predict: 0.0
          Else (feature 1583 > 24.0)
           Predict: 1.0
         Else (feature 1542 > 15.0)
          If (feature 261 <= 178.0)
           If (feature 2021 <= 16.0)
            Predict: 1.0
           Else (feature 2021 > 16.0)
            If (feature 2315 <= 4.0)
             Predict: 1.0
            Else (feature 2315 > 4.0)
             Predict: 0.0
          Else (feature 261 > 178.0)
           If (feature 3074 <= 0.0)
            Predict: 0.0
           Else (feature 3074 > 0.0)
            Predict: 1.0
       Else (feature 1081 > 43.0)
        If (feature 239 <= 148.0)
         If (feature 301 <= 136.0)
          If (feature 195 <= 151.0)
           If (feature 2820 <= 146.0)
            If (feature 61 <= 76.0)
             If (feature 2025 <= 46.0)
              Predict: 1.0
             Else (feature 2025 > 46.0)
              Predict: 1.0
            Else (feature 61 > 76.0)
             If (feature 942 <= 4.0)
              Predict: 0.0
             Else (feature 942 > 4.0)
              Predict: 1.0
           Else (feature 2820 > 146.0)
            If (feature 2931 <= 65.0)
             If (feature 1266 <= 72.0)
              Predict: 1.0
             Else (feature 1266 > 72.0)
              Predict: 0.0
            Else (feature 2931 > 65.0)
             If (feature 1569 <= 2.0)
              Predict: 0.0
             Else (feature 1569 > 2.0)
              Predict: 1.0
          Else (feature 195 > 151.0)
           If (feature 683 <= 10.0)
            If (feature 1395 <= 7.0)
             Predict: 0.0
            Else (feature 1395 > 7.0)
             If (feature 320 <= 87.0)
              Predict: 1.0
             Else (feature 320 > 87.0)
              Predict: 0.0
           Else (feature 683 > 10.0)
            Predict: 1.0
         Else (feature 301 > 136.0)
          If (feature 2712 <= 3.0)
           If (feature 632 <= 12.0)
            If (feature 2632 <= 88.0)
             Predict: 1.0
            Else (feature 2632 > 88.0)
             Predict: 0.0
           Else (feature 632 > 12.0)
            Predict: 0.0
          Else (feature 2712 > 3.0)
           If (feature 766 <= 38.0)
            If (feature 1842 <= 11.0)
             Predict: 0.0
            Else (feature 1842 > 11.0)
             Predict: 1.0
           Else (feature 766 > 38.0)
            Predict: 1.0
        Else (feature 239 > 148.0)
         If (feature 197 <= 99.0)
          If (feature 1563 <= 40.0)
           If (feature 2946 <= 6.0)
            Predict: 1.0
           Else (feature 2946 > 6.0)
            Predict: 0.0
          Else (feature 1563 > 40.0)
           Predict: 1.0
         Else (feature 197 > 99.0)
          If (feature 1560 <= 3.0)
           If (feature 1828 <= 8.0)
            If (feature 1841 <= 12.0)
             Predict: 0.0
            Else (feature 1841 > 12.0)
             If (feature 110 <= 0.0)
              Predict: 1.0
             Else (feature 110 > 0.0)
              Predict: 0.0
           Else (feature 1828 > 8.0)
            Predict: 1.0
          Else (feature 1560 > 3.0)
           If (feature 841 <= 10.0)
            If (feature 1180 <= 46.0)
             If (feature 5 <= 59.0)
              Predict: 1.0
             Else (feature 5 > 59.0)
              Predict: 0.0
            Else (feature 1180 > 46.0)
             If (feature 414 <= 0.0)
              Predict: 1.0
             Else (feature 414 > 0.0)
              Predict: 0.0
           Else (feature 841 > 10.0)
            If (feature 356 <= 0.0)
             If (feature 822 <= 107.0)
              Predict: 0.0
             Else (feature 822 > 107.0)
              Predict: 1.0
            Else (feature 356 > 0.0)
             Predict: 1.0
  Tree 1:
    If (feature 1982 <= 55.0)
     If (feature 1124 <= 62.0)
      If (feature 1541 <= 62.0)
       If (feature 1565 <= 62.0)
        If (feature 1504 <= 60.0)
         If (feature 1943 <= 71.0)
          If (feature 1144 <= 74.0)
           If (feature 1042 <= 51.0)
            If (feature 682 <= 52.0)
             If (feature 1563 <= 65.0)
              Predict: 0.0
             Else (feature 1563 > 65.0)
              Predict: 0.0
            Else (feature 682 > 52.0)
             If (feature 2005 <= 44.0)
              Predict: 0.0
             Else (feature 2005 > 44.0)
              Predict: 1.0
           Else (feature 1042 > 51.0)
            If (feature 1201 <= 41.0)
             If (feature 1983 <= 31.0)
              Predict: 0.0
             Else (feature 1983 > 31.0)
              Predict: 0.0
            Else (feature 1201 > 41.0)
             If (feature 1320 <= 16.0)
              Predict: 1.0
             Else (feature 1320 > 16.0)
              Predict: 0.0
          Else (feature 1144 > 74.0)
           If (feature 1921 <= 30.0)
            If (feature 1352 <= 33.0)
             If (feature 1080 <= 74.0)
              Predict: 0.0
             Else (feature 1080 > 74.0)
              Predict: 1.0
            Else (feature 1352 > 33.0)
             If (feature 574 <= 145.0)
              Predict: 1.0
             Else (feature 574 > 145.0)
              Predict: 0.0
           Else (feature 1921 > 30.0)
            If (feature 689 <= 30.0)
             If (feature 2710 <= 24.0)
              Predict: 1.0
             Else (feature 2710 > 24.0)
              Predict: 0.0
            Else (feature 689 > 30.0)
             If (feature 2803 <= 3.0)
              Predict: 0.0
             Else (feature 2803 > 3.0)
              Predict: 1.0
         Else (feature 1943 > 71.0)
          If (feature 2130 <= 24.0)
           If (feature 1542 <= 22.0)
            If (feature 1630 <= 52.0)
             If (feature 1150 <= 35.0)
              Predict: 0.0
             Else (feature 1150 > 35.0)
              Predict: 1.0
            Else (feature 1630 > 52.0)
             If (feature 2061 <= 11.0)
              Predict: 1.0
             Else (feature 2061 > 11.0)
              Predict: 0.0
           Else (feature 1542 > 22.0)
            If (feature 2004 <= 13.0)
             If (feature 1964 <= 97.0)
              Predict: 0.0
             Else (feature 1964 > 97.0)
              Predict: 1.0
            Else (feature 2004 > 13.0)
             If (feature 2973 <= 135.0)
              Predict: 1.0
             Else (feature 2973 > 135.0)
              Predict: 0.0
          Else (feature 2130 > 24.0)
           If (feature 1564 <= 12.0)
            If (feature 2343 <= 5.0)
             If (feature 1626 <= 17.0)
              Predict: 1.0
             Else (feature 1626 > 17.0)
              Predict: 0.0
            Else (feature 2343 > 5.0)
             If (feature 438 <= 3.0)
              Predict: 1.0
             Else (feature 438 > 3.0)
              Predict: 0.0
           Else (feature 1564 > 12.0)
            If (feature 182 <= 108.0)
             If (feature 2818 <= 5.0)
              Predict: 1.0
             Else (feature 2818 > 5.0)
              Predict: 1.0
            Else (feature 182 > 108.0)
             Predict: 0.0
        Else (feature 1504 > 60.0)
         If (feature 1081 <= 32.0)
          If (feature 1986 <= 29.0)
           If (feature 1503 <= 77.0)
            If (feature 2003 <= 29.0)
             If (feature 1523 <= 57.0)
              Predict: 0.0
             Else (feature 1523 > 57.0)
              Predict: 1.0
            Else (feature 2003 > 29.0)
             If (feature 2061 <= 11.0)
              Predict: 0.0
             Else (feature 2061 > 11.0)
              Predict: 1.0
           Else (feature 1503 > 77.0)
            If (feature 1562 <= 45.0)
             If (feature 1522 <= 22.0)
              Predict: 0.0
             Else (feature 1522 > 22.0)
              Predict: 1.0
            Else (feature 1562 > 45.0)
             Predict: 1.0
          Else (feature 1986 > 29.0)
           If (feature 1148 <= 40.0)
            If (feature 1646 <= 42.0)
             If (feature 2450 <= 42.0)
              Predict: 0.0
             Else (feature 2450 > 42.0)
              Predict: 0.0
            Else (feature 1646 > 42.0)
             If (feature 874 <= 21.0)
              Predict: 1.0
             Else (feature 874 > 21.0)
              Predict: 0.0
           Else (feature 1148 > 40.0)
            If (feature 2610 <= 19.0)
             If (feature 2780 <= 78.0)
              Predict: 0.0
             Else (feature 2780 > 78.0)
              Predict: 0.0
            Else (feature 2610 > 19.0)
             If (feature 2782 <= 16.0)
              Predict: 0.0
             Else (feature 2782 > 16.0)
              Predict: 1.0
         Else (feature 1081 > 32.0)
          If (feature 1523 <= 27.0)
           If (feature 1632 <= 0.0)
            If (feature 1083 <= 39.0)
             If (feature 92 <= 0.0)
              Predict: 0.0
             Else (feature 92 > 0.0)
              Predict: 0.0
            Else (feature 1083 > 39.0)
             If (feature 999 <= 21.0)
              Predict: 1.0
             Else (feature 999 > 21.0)
              Predict: 0.0
           Else (feature 1632 > 0.0)
            If (feature 1886 <= 64.0)
             If (feature 1541 <= 55.0)
              Predict: 0.0
             Else (feature 1541 > 55.0)
              Predict: 1.0
            Else (feature 1886 > 64.0)
             Predict: 1.0
          Else (feature 1523 > 27.0)
           If (feature 997 <= 43.0)
            If (feature 140 <= 112.0)
             If (feature 1045 <= 20.0)
              Predict: 1.0
             Else (feature 1045 > 20.0)
              Predict: 1.0
            Else (feature 140 > 112.0)
             If (feature 1723 <= 8.0)
              Predict: 0.0
             Else (feature 1723 > 8.0)
              Predict: 1.0
           Else (feature 997 > 43.0)
            If (feature 557 <= 129.0)
             If (feature 1333 <= 36.0)
              Predict: 1.0
             Else (feature 1333 > 36.0)
              Predict: 0.0
            Else (feature 557 > 129.0)
             If (feature 2809 <= 10.0)
              Predict: 0.0
             Else (feature 2809 > 10.0)
              Predict: 0.0
       Else (feature 1565 > 62.0)
        If (feature 2005 <= 24.0)
         If (feature 2027 <= 24.0)
          If (feature 1082 <= 23.0)
           If (feature 1146 <= 30.0)
            If (feature 1165 <= 67.0)
             If (feature 1736 <= 38.0)
              Predict: 0.0
             Else (feature 1736 > 38.0)
              Predict: 1.0
            Else (feature 1165 > 67.0)
             Predict: 1.0
           Else (feature 1146 > 30.0)
            If (feature 1690 <= 37.0)
             If (feature 1540 <= 18.0)
              Predict: 0.0
             Else (feature 1540 > 18.0)
              Predict: 1.0
            Else (feature 1690 > 37.0)
             If (feature 604 <= 4.0)
              Predict: 0.0
             Else (feature 604 > 4.0)
              Predict: 1.0
          Else (feature 1082 > 23.0)
           If (feature 53 <= 8.0)
            If (feature 124 <= 46.0)
             If (feature 621 <= 5.0)
              Predict: 0.0
             Else (feature 621 > 5.0)
              Predict: 1.0
            Else (feature 124 > 46.0)
             Predict: 0.0
           Else (feature 53 > 8.0)
            If (feature 1734 <= 97.0)
             If (feature 1259 <= 19.0)
              Predict: 0.0
             Else (feature 1259 > 19.0)
              Predict: 1.0
            Else (feature 1734 > 97.0)
             Predict: 1.0
         Else (feature 2027 > 24.0)
          If (feature 1439 <= 43.0)
           If (feature 1123 <= 51.0)
            If (feature 1479 <= 28.0)
             If (feature 1862 <= 31.0)
              Predict: 0.0
             Else (feature 1862 > 31.0)
              Predict: 1.0
            Else (feature 1479 > 28.0)
             If (feature 1587 <= 18.0)
              Predict: 0.0
             Else (feature 1587 > 18.0)
              Predict: 1.0
           Else (feature 1123 > 51.0)
            If (feature 3029 <= 4.0)
             If (feature 262 <= 61.0)
              Predict: 1.0
             Else (feature 262 > 61.0)
              Predict: 0.0
            Else (feature 3029 > 4.0)
             If (feature 2504 <= 7.0)
              Predict: 0.0
             Else (feature 2504 > 7.0)
              Predict: 1.0
          Else (feature 1439 > 43.0)
           If (feature 2944 <= 28.0)
            If (feature 1196 <= 13.0)
             If (feature 783 <= 55.0)
              Predict: 1.0
             Else (feature 783 > 55.0)
              Predict: 0.0
            Else (feature 1196 > 13.0)
             Predict: 0.0
           Else (feature 2944 > 28.0)
            Predict: 0.0
        Else (feature 2005 > 24.0)
         If (feature 2993 <= 102.0)
          If (feature 1083 <= 7.0)
           If (feature 1984 <= 63.0)
            If (feature 1564 <= 10.0)
             If (feature 1567 <= 72.0)
              Predict: 0.0
             Else (feature 1567 > 72.0)
              Predict: 1.0
            Else (feature 1564 > 10.0)
             If (feature 655 <= 2.0)
              Predict: 1.0
             Else (feature 655 > 2.0)
              Predict: 1.0
           Else (feature 1984 > 63.0)
            If (feature 2159 <= 18.0)
             If (feature 2709 <= 94.0)
              Predict: 1.0
             Else (feature 2709 > 94.0)
              Predict: 0.0
            Else (feature 2159 > 18.0)
             If (feature 534 <= 1.0)
              Predict: 1.0
             Else (feature 534 > 1.0)
              Predict: 0.0
          Else (feature 1083 > 7.0)
           If (feature 1503 <= 50.0)
            If (feature 109 <= 17.0)
             If (feature 1395 <= 23.0)
              Predict: 1.0
             Else (feature 1395 > 23.0)
              Predict: 1.0
            Else (feature 109 > 17.0)
             If (feature 1849 <= 8.0)
              Predict: 0.0
             Else (feature 1849 > 8.0)
              Predict: 1.0
           Else (feature 1503 > 50.0)
            If (feature 1320 <= 31.0)
             If (feature 2009 <= 37.0)
              Predict: 1.0
             Else (feature 2009 > 37.0)
              Predict: 1.0
            Else (feature 1320 > 31.0)
             If (feature 1882 <= 2.0)
              Predict: 1.0
             Else (feature 1882 > 2.0)
              Predict: 0.0
         Else (feature 2993 > 102.0)
          If (feature 294 <= 2.0)
           If (feature 1770 <= 26.0)
            If (feature 2450 <= 19.0)
             If (feature 228 <= 11.0)
              Predict: 1.0
             Else (feature 228 > 11.0)
              Predict: 1.0
            Else (feature 2450 > 19.0)
             If (feature 1076 <= 0.0)
              Predict: 1.0
             Else (feature 1076 > 0.0)
              Predict: 0.0
           Else (feature 1770 > 26.0)
            Predict: 0.0
          Else (feature 294 > 2.0)
           If (feature 1860 <= 24.0)
            If (feature 936 <= 40.0)
             If (feature 982 <= 57.0)
              Predict: 0.0
             Else (feature 982 > 57.0)
              Predict: 1.0
            Else (feature 936 > 40.0)
             Predict: 1.0
           Else (feature 1860 > 24.0)
            If (feature 1586 <= 7.0)
             Predict: 0.0
            Else (feature 1586 > 7.0)
             Predict: 1.0
      Else (feature 1541 > 62.0)
       If (feature 1083 <= 26.0)
        If (feature 1059 <= 30.0)
         If (feature 1584 <= 26.0)
          If (feature 1124 <= 41.0)
           If (feature 1101 <= 23.0)
            If (feature 2344 <= 44.0)
             If (feature 2404 <= 40.0)
              Predict: 0.0
             Else (feature 2404 > 40.0)
              Predict: 1.0
            Else (feature 2344 > 44.0)
             If (feature 2871 <= 0.0)
              Predict: 1.0
             Else (feature 2871 > 0.0)
              Predict: 0.0
           Else (feature 1101 > 23.0)
            If (feature 2779 <= 37.0)
             If (feature 3045 <= 2.0)
              Predict: 0.0
             Else (feature 3045 > 2.0)
              Predict: 1.0
            Else (feature 2779 > 37.0)
             Predict: 0.0
          Else (feature 1124 > 41.0)
           If (feature 2526 <= 16.0)
            If (feature 1418 <= 0.0)
             Predict: 1.0
            Else (feature 1418 > 0.0)
             If (feature 1855 <= 5.0)
              Predict: 1.0
             Else (feature 1855 > 5.0)
              Predict: 0.0
           Else (feature 2526 > 16.0)
            Predict: 0.0
         Else (feature 1584 > 26.0)
          If (feature 2776 <= 25.0)
           If (feature 2442 <= 110.0)
            If (feature 704 <= 7.0)
             If (feature 259 <= 43.0)
              Predict: 1.0
             Else (feature 259 > 43.0)
              Predict: 0.0
            Else (feature 704 > 7.0)
             If (feature 1563 <= 11.0)
              Predict: 0.0
             Else (feature 1563 > 11.0)
              Predict: 1.0
           Else (feature 2442 > 110.0)
            If (feature 1641 <= 44.0)
             Predict: 0.0
            Else (feature 1641 > 44.0)
             Predict: 1.0
          Else (feature 2776 > 25.0)
           If (feature 2000 <= 2.0)
            If (feature 2384 <= 4.0)
             Predict: 1.0
            Else (feature 2384 > 4.0)
             Predict: 0.0
           Else (feature 2000 > 2.0)
            If (feature 2737 <= 24.0)
             If (feature 1003 <= 32.0)
              Predict: 0.0
             Else (feature 1003 > 32.0)
              Predict: 1.0
            Else (feature 2737 > 24.0)
             Predict: 1.0
        Else (feature 1059 > 30.0)
         If (feature 1101 <= 53.0)
          If (feature 91 <= 12.0)
           If (feature 1203 <= 13.0)
            If (feature 2621 <= 15.0)
             If (feature 1363 <= 26.0)
              Predict: 0.0
             Else (feature 1363 > 26.0)
              Predict: 1.0
            Else (feature 2621 > 15.0)
             If (feature 1591 <= 28.0)
              Predict: 1.0
             Else (feature 1591 > 28.0)
              Predict: 0.0
           Else (feature 1203 > 13.0)
            If (feature 1497 <= 46.0)
             If (feature 118 <= 111.0)
              Predict: 1.0
             Else (feature 118 > 111.0)
              Predict: 0.0
            Else (feature 1497 > 46.0)
             If (feature 360 <= 14.0)
              Predict: 0.0
             Else (feature 360 > 14.0)
              Predict: 1.0
          Else (feature 91 > 12.0)
           If (feature 2004 <= 71.0)
            If (feature 176 <= 44.0)
             If (feature 621 <= 10.0)
              Predict: 0.0
             Else (feature 621 > 10.0)
              Predict: 1.0
            Else (feature 176 > 44.0)
             If (feature 2883 <= 26.0)
              Predict: 0.0
             Else (feature 2883 > 26.0)
              Predict: 1.0
           Else (feature 2004 > 71.0)
            If (feature 1698 <= 11.0)
             Predict: 1.0
            Else (feature 1698 > 11.0)
             Predict: 0.0
         Else (feature 1101 > 53.0)
          If (feature 2462 <= 90.0)
           If (feature 596 <= 128.0)
            If (feature 50 <= 120.0)
             If (feature 2717 <= 154.0)
              Predict: 1.0
             Else (feature 2717 > 154.0)
              Predict: 0.0
            Else (feature 50 > 120.0)
             If (feature 1594 <= 6.0)
              Predict: 0.0
             Else (feature 1594 > 6.0)
              Predict: 1.0
           Else (feature 596 > 128.0)
            If (feature 636 <= 17.0)
             Predict: 1.0
            Else (feature 636 > 17.0)
             If (feature 257 <= 20.0)
              Predict: 1.0
             Else (feature 257 > 20.0)
              Predict: 0.0
          Else (feature 2462 > 90.0)
           If (feature 2669 <= 17.0)
            Predict: 0.0
           Else (feature 2669 > 17.0)
            Predict: 1.0
       Else (feature 1083 > 26.0)
        If (feature 1103 <= 33.0)
         If (feature 716 <= 28.0)
          If (feature 1983 <= 44.0)
           If (feature 649 <= 13.0)
            If (feature 2023 <= 15.0)
             If (feature 1215 <= 6.0)
              Predict: 0.0
             Else (feature 1215 > 6.0)
              Predict: 1.0
            Else (feature 2023 > 15.0)
             If (feature 1717 <= 9.0)
              Predict: 1.0
             Else (feature 1717 > 9.0)
              Predict: 0.0
           Else (feature 649 > 13.0)
            Predict: 1.0
          Else (feature 1983 > 44.0)
           If (feature 885 <= 18.0)
            If (feature 876 <= 20.0)
             If (feature 2301 <= 72.0)
              Predict: 1.0
             Else (feature 2301 > 72.0)
              Predict: 0.0
            Else (feature 876 > 20.0)
             Predict: 0.0
           Else (feature 885 > 18.0)
            If (feature 386 <= 14.0)
             Predict: 1.0
            Else (feature 386 > 14.0)
             Predict: 0.0
         Else (feature 716 > 28.0)
          If (feature 206 <= 45.0)
           If (feature 2951 <= 20.0)
            Predict: 1.0
           Else (feature 2951 > 20.0)
            Predict: 0.0
          Else (feature 206 > 45.0)
           Predict: 0.0
        Else (feature 1103 > 33.0)
         If (feature 139 <= 149.0)
          If (feature 1811 <= 73.0)
           If (feature 164 <= 124.0)
            If (feature 2019 <= 59.0)
             If (feature 91 <= 48.0)
              Predict: 1.0
             Else (feature 91 > 48.0)
              Predict: 0.0
            Else (feature 2019 > 59.0)
             If (feature 2419 <= 21.0)
              Predict: 1.0
             Else (feature 2419 > 21.0)
              Predict: 0.0
           Else (feature 164 > 124.0)
            Predict: 0.0
          Else (feature 1811 > 73.0)
           Predict: 0.0
         Else (feature 139 > 149.0)
          If (feature 664 <= 0.0)
           Predict: 1.0
          Else (feature 664 > 0.0)
           Predict: 0.0
     Else (feature 1124 > 62.0)
      If (feature 1459 <= 33.0)
       If (feature 1605 <= 42.0)
        If (feature 1563 <= 25.0)
         If (feature 1984 <= 25.0)
          If (feature 1440 <= 59.0)
           If (feature 1863 <= 38.0)
            If (feature 1100 <= 33.0)
             If (feature 1720 <= 31.0)
              Predict: 0.0
             Else (feature 1720 > 31.0)
              Predict: 1.0
            Else (feature 1100 > 33.0)
             If (feature 1668 <= 1.0)
              Predict: 1.0
             Else (feature 1668 > 1.0)
              Predict: 0.0
           Else (feature 1863 > 38.0)
            If (feature 1002 <= 1.0)
             If (feature 580 <= 67.0)
              Predict: 0.0
             Else (feature 580 > 67.0)
              Predict: 1.0
            Else (feature 1002 > 1.0)
             If (feature 2837 <= 2.0)
              Predict: 1.0
             Else (feature 2837 > 2.0)
              Predict: 0.0
          Else (feature 1440 > 59.0)
           If (feature 2955 <= 35.0)
            If (feature 370 <= 93.0)
             If (feature 135 <= 39.0)
              Predict: 1.0
             Else (feature 135 > 39.0)
              Predict: 0.0
            Else (feature 370 > 93.0)
             If (feature 2681 <= 0.0)
              Predict: 1.0
             Else (feature 2681 > 0.0)
              Predict: 0.0
           Else (feature 2955 > 35.0)
            Predict: 0.0
         Else (feature 1984 > 25.0)
          If (feature 1876 <= 7.0)
           If (feature 1104 <= 40.0)
            If (feature 1317 <= 10.0)
             If (feature 848 <= 7.0)
              Predict: 0.0
             Else (feature 848 > 7.0)
              Predict: 1.0
            Else (feature 1317 > 10.0)
             If (feature 829 <= 13.0)
              Predict: 1.0
             Else (feature 829 > 13.0)
              Predict: 0.0
           Else (feature 1104 > 40.0)
            If (feature 1523 <= 15.0)
             If (feature 966 <= 5.0)
              Predict: 0.0
             Else (feature 966 > 5.0)
              Predict: 1.0
            Else (feature 1523 > 15.0)
             If (feature 2685 <= 44.0)
              Predict: 1.0
             Else (feature 2685 > 44.0)
              Predict: 0.0
          Else (feature 1876 > 7.0)
           If (feature 2025 <= 29.0)
            If (feature 1103 <= 32.0)
             If (feature 375 <= 1.0)
              Predict: 0.0
             Else (feature 375 > 1.0)
              Predict: 1.0
            Else (feature 1103 > 32.0)
             If (feature 1350 <= 208.0)
              Predict: 1.0
             Else (feature 1350 > 208.0)
              Predict: 0.0
           Else (feature 2025 > 29.0)
            If (feature 536 <= 11.0)
             If (feature 920 <= 85.0)
              Predict: 1.0
             Else (feature 920 > 85.0)
              Predict: 0.0
            Else (feature 536 > 11.0)
             If (feature 1633 <= 22.0)
              Predict: 0.0
             Else (feature 1633 > 22.0)
              Predict: 1.0
        Else (feature 1563 > 25.0)
         If (feature 1100 <= 19.0)
          If (feature 1945 <= 52.0)
           If (feature 1082 <= 63.0)
            If (feature 894 <= 10.0)
             If (feature 1983 <= 22.0)
              Predict: 1.0
             Else (feature 1983 > 22.0)
              Predict: 1.0
            Else (feature 894 > 10.0)
             If (feature 3044 <= 6.0)
              Predict: 0.0
             Else (feature 3044 > 6.0)
              Predict: 1.0
           Else (feature 1082 > 63.0)
            If (feature 1103 <= 34.0)
             Predict: 0.0
            Else (feature 1103 > 34.0)
             If (feature 155 <= 88.0)
              Predict: 1.0
             Else (feature 155 > 88.0)
              Predict: 0.0
          Else (feature 1945 > 52.0)
           If (feature 445 <= 18.0)
            If (feature 1948 <= 92.0)
             Predict: 1.0
            Else (feature 1948 > 92.0)
             If (feature 459 <= 7.0)
              Predict: 1.0
             Else (feature 459 > 7.0)
              Predict: 0.0
           Else (feature 445 > 18.0)
            If (feature 779 <= 2.0)
             Predict: 0.0
            Else (feature 779 > 2.0)
             Predict: 1.0
         Else (feature 1100 > 19.0)
          If (feature 1565 <= 40.0)
           If (feature 57 <= 27.0)
            If (feature 183 <= 54.0)
             If (feature 2066 <= 7.0)
              Predict: 1.0
             Else (feature 2066 > 7.0)
              Predict: 1.0
            Else (feature 183 > 54.0)
             Predict: 0.0
           Else (feature 57 > 27.0)
            If (feature 2787 <= 4.0)
             Predict: 0.0
            Else (feature 2787 > 4.0)
             Predict: 1.0
          Else (feature 1565 > 40.0)
           If (feature 55 <= 117.0)
            If (feature 2854 <= 163.0)
             If (feature 2668 <= 87.0)
              Predict: 1.0
             Else (feature 2668 > 87.0)
              Predict: 0.0
            Else (feature 2854 > 163.0)
             If (feature 1748 <= 1.0)
              Predict: 0.0
             Else (feature 1748 > 1.0)
              Predict: 1.0
           Else (feature 55 > 117.0)
            If (feature 2400 <= 0.0)
             Predict: 1.0
            Else (feature 2400 > 0.0)
             Predict: 0.0
       Else (feature 1605 > 42.0)
        If (feature 2765 <= 10.0)
         If (feature 1924 <= 18.0)
          If (feature 2164 <= 8.0)
           If (feature 303 <= 144.0)
            If (feature 2991 <= 122.0)
             If (feature 1585 <= 115.0)
              Predict: 1.0
             Else (feature 1585 > 115.0)
              Predict: 1.0
            Else (feature 2991 > 122.0)
             If (feature 615 <= 0.0)
              Predict: 1.0
             Else (feature 615 > 0.0)
              Predict: 0.0
           Else (feature 303 > 144.0)
            If (feature 930 <= 4.0)
             If (feature 872 <= 17.0)
              Predict: 0.0
             Else (feature 872 > 17.0)
              Predict: 1.0
            Else (feature 930 > 4.0)
             If (feature 545 <= 1.0)
              Predict: 1.0
             Else (feature 545 > 1.0)
              Predict: 0.0
          Else (feature 2164 > 8.0)
           If (feature 338 <= 18.0)
            If (feature 1068 <= 32.0)
             If (feature 1984 <= 26.0)
              Predict: 0.0
             Else (feature 1984 > 26.0)
              Predict: 1.0
            Else (feature 1068 > 32.0)
             Predict: 1.0
           Else (feature 338 > 18.0)
            If (feature 690 <= 15.0)
             If (feature 581 <= 5.0)
              Predict: 1.0
             Else (feature 581 > 5.0)
              Predict: 0.0
            Else (feature 690 > 15.0)
             Predict: 0.0
         Else (feature 1924 > 18.0)
          If (feature 2337 <= 47.0)
           If (feature 56 <= 177.0)
            If (feature 219 <= 157.0)
             If (feature 624 <= 0.0)
              Predict: 1.0
             Else (feature 624 > 0.0)
              Predict: 1.0
            Else (feature 219 > 157.0)
             If (feature 1320 <= 0.0)
              Predict: 1.0
             Else (feature 1320 > 0.0)
              Predict: 0.0
           Else (feature 56 > 177.0)
            If (feature 2056 <= 0.0)
             Predict: 1.0
            Else (feature 2056 > 0.0)
             Predict: 0.0
          Else (feature 2337 > 47.0)
           If (feature 873 <= 0.0)
            Predict: 0.0
           Else (feature 873 > 0.0)
            Predict: 1.0
        Else (feature 2765 > 10.0)
         If (feature 2533 <= 124.0)
          If (feature 2073 <= 51.0)
           If (feature 382 <= 143.0)
            If (feature 2319 <= 91.0)
             If (feature 573 <= 36.0)
              Predict: 1.0
             Else (feature 573 > 36.0)
              Predict: 0.0
            Else (feature 2319 > 91.0)
             Predict: 0.0
           Else (feature 382 > 143.0)
            Predict: 0.0
          Else (feature 2073 > 51.0)
           If (feature 2370 <= 3.0)
            Predict: 1.0
           Else (feature 2370 > 3.0)
            Predict: 0.0
         Else (feature 2533 > 124.0)
          Predict: 0.0
      Else (feature 1459 > 33.0)
       If (feature 2006 <= 40.0)
        If (feature 199 <= 129.0)
         If (feature 1565 <= 28.0)
          If (feature 1763 <= 12.0)
           If (feature 2801 <= 70.0)
            If (feature 1039 <= 15.0)
             If (feature 1123 <= 10.0)
              Predict: 0.0
             Else (feature 1123 > 10.0)
              Predict: 1.0
            Else (feature 1039 > 15.0)
             If (feature 1205 <= 0.0)
              Predict: 1.0
             Else (feature 1205 > 0.0)
              Predict: 1.0
           Else (feature 2801 > 70.0)
            Predict: 0.0
          Else (feature 1763 > 12.0)
           If (feature 2629 <= 5.0)
            If (feature 1560 <= 0.0)
             Predict: 1.0
            Else (feature 1560 > 0.0)
             Predict: 0.0
           Else (feature 2629 > 5.0)
            Predict: 1.0
         Else (feature 1565 > 28.0)
          If (feature 1840 <= 227.0)
           If (feature 1025 <= 99.0)
            If (feature 1127 <= 97.0)
             If (feature 390 <= 198.0)
              Predict: 1.0
             Else (feature 390 > 198.0)
              Predict: 0.0
            Else (feature 1127 > 97.0)
             If (feature 623 <= 20.0)
              Predict: 1.0
             Else (feature 623 > 20.0)
              Predict: 0.0
           Else (feature 1025 > 99.0)
            Predict: 0.0
          Else (feature 1840 > 227.0)
           Predict: 0.0
        Else (feature 199 > 129.0)
         If (feature 1059 <= 31.0)
          If (feature 1543 <= 67.0)
           Predict: 0.0
          Else (feature 1543 > 67.0)
           Predict: 1.0
         Else (feature 1059 > 31.0)
          If (feature 160 <= 20.0)
           If (feature 2150 <= 27.0)
            Predict: 1.0
           Else (feature 2150 > 27.0)
            Predict: 0.0
          Else (feature 160 > 20.0)
           If (feature 217 <= 6.0)
            If (feature 2927 <= 2.0)
             Predict: 1.0
            Else (feature 2927 > 2.0)
             Predict: 0.0
           Else (feature 217 > 6.0)
            If (feature 563 <= 6.0)
             Predict: 0.0
            Else (feature 563 > 6.0)
             Predict: 1.0
       Else (feature 2006 > 40.0)
        If (feature 2659 <= 125.0)
         If (feature 1199 <= 106.0)
          If (feature 176 <= 116.0)
           If (feature 1936 <= 140.0)
            If (feature 359 <= 74.0)
             If (feature 586 <= 70.0)
              Predict: 1.0
             Else (feature 586 > 70.0)
              Predict: 1.0
            Else (feature 359 > 74.0)
             If (feature 645 <= 5.0)
              Predict: 0.0
             Else (feature 645 > 5.0)
              Predict: 1.0
           Else (feature 1936 > 140.0)
            Predict: 0.0
          Else (feature 176 > 116.0)
           If (feature 2928 <= 2.0)
            If (feature 549 <= 18.0)
             Predict: 0.0
            Else (feature 549 > 18.0)
             Predict: 1.0
           Else (feature 2928 > 2.0)
            Predict: 1.0
         Else (feature 1199 > 106.0)
          If (feature 554 <= 0.0)
           Predict: 1.0
          Else (feature 554 > 0.0)
           Predict: 0.0
        Else (feature 2659 > 125.0)
         If (feature 2592 <= 3.0)
          Predict: 0.0
         Else (feature 2592 > 3.0)
          Predict: 1.0
    Else (feature 1982 > 55.0)
     If (feature 1143 <= 23.0)
      If (feature 2006 <= 36.0)
       If (feature 1521 <= 51.0)
        If (feature 2346 <= 52.0)
         If (feature 1043 <= 40.0)
          If (feature 1986 <= 44.0)
           If (feature 1606 <= 75.0)
            If (feature 1541 <= 24.0)
             If (feature 1964 <= 58.0)
              Predict: 0.0
             Else (feature 1964 > 58.0)
              Predict: 1.0
            Else (feature 1541 > 24.0)
             If (feature 2903 <= 53.0)
              Predict: 0.0
             Else (feature 2903 > 53.0)
              Predict: 0.0
           Else (feature 1606 > 75.0)
            If (feature 2139 <= 5.0)
             If (feature 748 <= 18.0)
              Predict: 0.0
             Else (feature 748 > 18.0)
              Predict: 1.0
            Else (feature 2139 > 5.0)
             If (feature 863 <= 16.0)
              Predict: 1.0
             Else (feature 863 > 16.0)
              Predict: 0.0
          Else (feature 1986 > 44.0)
           If (feature 3061 <= 14.0)
            If (feature 2962 <= 31.0)
             If (feature 2318 <= 3.0)
              Predict: 1.0
             Else (feature 2318 > 3.0)
              Predict: 1.0
            Else (feature 2962 > 31.0)
             Predict: 0.0
           Else (feature 3061 > 14.0)
            If (feature 2488 <= 0.0)
             If (feature 2743 <= 0.0)
              Predict: 0.0
             Else (feature 2743 > 0.0)
              Predict: 1.0
            Else (feature 2488 > 0.0)
             Predict: 0.0
         Else (feature 1043 > 40.0)
          If (feature 1919 <= 12.0)
           If (feature 748 <= 4.0)
            If (feature 538 <= 50.0)
             If (feature 686 <= 27.0)
              Predict: 1.0
             Else (feature 686 > 27.0)
              Predict: 0.0
            Else (feature 538 > 50.0)
             Predict: 0.0
           Else (feature 748 > 4.0)
            If (feature 1444 <= 36.0)
             If (feature 2431 <= 51.0)
              Predict: 0.0
             Else (feature 2431 > 51.0)
              Predict: 1.0
            Else (feature 1444 > 36.0)
             Predict: 1.0
          Else (feature 1919 > 12.0)
           If (feature 1840 <= 0.0)
            If (feature 2147 <= 0.0)
             Predict: 0.0
            Else (feature 2147 > 0.0)
             Predict: 1.0
           Else (feature 1840 > 0.0)
            If (feature 2599 <= 16.0)
             Predict: 0.0
            Else (feature 2599 > 16.0)
             Predict: 1.0
        Else (feature 2346 > 52.0)
         If (feature 2336 <= 3.0)
          If (feature 1543 <= 23.0)
           If (feature 1021 <= 24.0)
            If (feature 888 <= 3.0)
             If (feature 2257 <= 14.0)
              Predict: 0.0
             Else (feature 2257 > 14.0)
              Predict: 1.0
            Else (feature 888 > 3.0)
             Predict: 1.0
           Else (feature 1021 > 24.0)
            If (feature 1933 <= 6.0)
             Predict: 1.0
            Else (feature 1933 > 6.0)
             Predict: 0.0
          Else (feature 1543 > 23.0)
           Predict: 1.0
         Else (feature 2336 > 3.0)
          If (feature 693 <= 12.0)
           If (feature 2081 <= 23.0)
            If (feature 1044 <= 84.0)
             Predict: 0.0
            Else (feature 1044 > 84.0)
             Predict: 1.0
           Else (feature 2081 > 23.0)
            If (feature 2956 <= 0.0)
             Predict: 1.0
            Else (feature 2956 > 0.0)
             Predict: 0.0
          Else (feature 693 > 12.0)
           If (feature 519 <= 36.0)
            Predict: 1.0
           Else (feature 519 > 36.0)
            Predict: 0.0
       Else (feature 1521 > 51.0)
        If (feature 2842 <= 114.0)
         If (feature 2358 <= 22.0)
          If (feature 532 <= 113.0)
           If (feature 480 <= 158.0)
            If (feature 1720 <= 83.0)
             If (feature 1120 <= 39.0)
              Predict: 1.0
             Else (feature 1120 > 39.0)
              Predict: 1.0
            Else (feature 1720 > 83.0)
             If (feature 923 <= 16.0)
              Predict: 0.0
             Else (feature 923 > 16.0)
              Predict: 1.0
           Else (feature 480 > 158.0)
            Predict: 0.0
          Else (feature 532 > 113.0)
           If (feature 1581 <= 0.0)
            Predict: 1.0
           Else (feature 1581 > 0.0)
            Predict: 0.0
         Else (feature 2358 > 22.0)
          If (feature 1916 <= 41.0)
           If (feature 2304 <= 3.0)
            If (feature 3029 <= 33.0)
             If (feature 1539 <= 0.0)
              Predict: 0.0
             Else (feature 1539 > 0.0)
              Predict: 1.0
            Else (feature 3029 > 33.0)
             Predict: 0.0
           Else (feature 2304 > 3.0)
            If (feature 2305 <= 18.0)
             If (feature 1881 <= 105.0)
              Predict: 0.0
             Else (feature 1881 > 105.0)
              Predict: 1.0
            Else (feature 2305 > 18.0)
             If (feature 110 <= 15.0)
              Predict: 1.0
             Else (feature 110 > 15.0)
              Predict: 0.0
          Else (feature 1916 > 41.0)
           If (feature 2751 <= 95.0)
            If (feature 514 <= 37.0)
             If (feature 1890 <= 49.0)
              Predict: 1.0
             Else (feature 1890 > 49.0)
              Predict: 1.0
            Else (feature 514 > 37.0)
             If (feature 2044 <= 1.0)
              Predict: 1.0
             Else (feature 2044 > 1.0)
              Predict: 0.0
           Else (feature 2751 > 95.0)
            If (feature 2570 <= 4.0)
             Predict: 0.0
            Else (feature 2570 > 4.0)
             Predict: 1.0
        Else (feature 2842 > 114.0)
         If (feature 2276 <= 1.0)
          If (feature 1474 <= 14.0)
           If (feature 1620 <= 0.0)
            Predict: 0.0
           Else (feature 1620 > 0.0)
            If (feature 1057 <= 0.0)
             Predict: 0.0
            Else (feature 1057 > 0.0)
             If (feature 1555 <= 13.0)
              Predict: 1.0
             Else (feature 1555 > 13.0)
              Predict: 0.0
          Else (feature 1474 > 14.0)
           If (feature 1648 <= 75.0)
            If (feature 2399 <= 225.0)
             If (feature 1773 <= 38.0)
              Predict: 1.0
             Else (feature 1773 > 38.0)
              Predict: 0.0
            Else (feature 2399 > 225.0)
             Predict: 0.0
           Else (feature 1648 > 75.0)
            Predict: 0.0
         Else (feature 2276 > 1.0)
          If (feature 49 <= 24.0)
           If (feature 2252 <= 2.0)
            If (feature 1550 <= 1.0)
             If (feature 2717 <= 94.0)
              Predict: 1.0
             Else (feature 2717 > 94.0)
              Predict: 0.0
            Else (feature 1550 > 1.0)
             If (feature 2471 <= 12.0)
              Predict: 0.0
             Else (feature 2471 > 12.0)
              Predict: 1.0
           Else (feature 2252 > 2.0)
            Predict: 0.0
          Else (feature 49 > 24.0)
           Predict: 1.0
      Else (feature 2006 > 36.0)
       If (feature 664 <= 28.0)
        If (feature 1588 <= 26.0)
         If (feature 2821 <= 37.0)
          If (feature 101 <= 44.0)
           If (feature 1984 <= 39.0)
            If (feature 641 <= 14.0)
             If (feature 1559 <= 35.0)
              Predict: 0.0
             Else (feature 1559 > 35.0)
              Predict: 1.0
            Else (feature 641 > 14.0)
             If (feature 614 <= 88.0)
              Predict: 1.0
             Else (feature 614 > 88.0)
              Predict: 0.0
           Else (feature 1984 > 39.0)
            If (feature 178 <= 5.0)
             If (feature 987 <= 19.0)
              Predict: 1.0
             Else (feature 987 > 19.0)
              Predict: 0.0
            Else (feature 178 > 5.0)
             If (feature 66 <= 55.0)
              Predict: 1.0
             Else (feature 66 > 55.0)
              Predict: 1.0
          Else (feature 101 > 44.0)
           Predict: 0.0
         Else (feature 2821 > 37.0)
          If (feature 1500 <= 48.0)
           If (feature 1175 <= 4.0)
            If (feature 1939 <= 99.0)
             If (feature 1988 <= 20.0)
              Predict: 0.0
             Else (feature 1988 > 20.0)
              Predict: 1.0
            Else (feature 1939 > 99.0)
             If (feature 2949 <= 9.0)
              Predict: 1.0
             Else (feature 2949 > 9.0)
              Predict: 0.0
           Else (feature 1175 > 4.0)
            If (feature 2631 <= 1.0)
             If (feature 2687 <= 33.0)
              Predict: 1.0
             Else (feature 2687 > 33.0)
              Predict: 0.0
            Else (feature 2631 > 1.0)
             Predict: 0.0
          Else (feature 1500 > 48.0)
           If (feature 2066 <= 9.0)
            If (feature 503 <= 24.0)
             If (feature 1522 <= 225.0)
              Predict: 1.0
             Else (feature 1522 > 225.0)
              Predict: 0.0
            Else (feature 503 > 24.0)
             If (feature 1188 <= 9.0)
              Predict: 0.0
             Else (feature 1188 > 9.0)
              Predict: 1.0
           Else (feature 2066 > 9.0)
            If (feature 316 <= 1.0)
             If (feature 1240 <= 4.0)
              Predict: 1.0
             Else (feature 1240 > 4.0)
              Predict: 0.0
            Else (feature 316 > 1.0)
             Predict: 0.0
        Else (feature 1588 > 26.0)
         If (feature 2275 <= 48.0)
          If (feature 2950 <= 84.0)
           If (feature 2967 <= 34.0)
            If (feature 2381 <= 0.0)
             If (feature 1080 <= 7.0)
              Predict: 0.0
             Else (feature 1080 > 7.0)
              Predict: 1.0
            Else (feature 2381 > 0.0)
             If (feature 1343 <= 55.0)
              Predict: 1.0
             Else (feature 1343 > 55.0)
              Predict: 0.0
           Else (feature 2967 > 34.0)
            If (feature 2645 <= 0.0)
             Predict: 0.0
            Else (feature 2645 > 0.0)
             Predict: 1.0
          Else (feature 2950 > 84.0)
           If (feature 1723 <= 7.0)
            If (feature 327 <= 1.0)
             Predict: 1.0
            Else (feature 327 > 1.0)
             Predict: 0.0
           Else (feature 1723 > 7.0)
            Predict: 1.0
         Else (feature 2275 > 48.0)
          If (feature 894 <= 0.0)
           Predict: 0.0
          Else (feature 894 > 0.0)
           Predict: 1.0
       Else (feature 664 > 28.0)
        If (feature 2797 <= 205.0)
         If (feature 1102 <= 21.0)
          If (feature 1521 <= 15.0)
           If (feature 1270 <= 6.0)
            If (feature 3034 <= 13.0)
             Predict: 1.0
            Else (feature 3034 > 13.0)
             Predict: 0.0
           Else (feature 1270 > 6.0)
            Predict: 0.0
          Else (feature 1521 > 15.0)
           If (feature 1845 <= 11.0)
            Predict: 1.0
           Else (feature 1845 > 11.0)
            If (feature 2155 <= 5.0)
             Predict: 0.0
            Else (feature 2155 > 5.0)
             Predict: 1.0
         Else (feature 1102 > 21.0)
          If (feature 2883 <= 214.0)
           If (feature 663 <= 2.0)
            If (feature 2242 <= 0.0)
             Predict: 1.0
            Else (feature 2242 > 0.0)
             Predict: 0.0
           Else (feature 663 > 2.0)
            If (feature 2520 <= 72.0)
             If (feature 1119 <= 207.0)
              Predict: 1.0
             Else (feature 1119 > 207.0)
              Predict: 0.0
            Else (feature 2520 > 72.0)
             If (feature 516 <= 0.0)
              Predict: 1.0
             Else (feature 516 > 0.0)
              Predict: 0.0
          Else (feature 2883 > 214.0)
           If (feature 2513 <= 33.0)
            Predict: 1.0
           Else (feature 2513 > 33.0)
            Predict: 0.0
        Else (feature 2797 > 205.0)
         Predict: 0.0
     Else (feature 1143 > 23.0)
      If (feature 2926 <= 125.0)
       If (feature 1102 <= 19.0)
        If (feature 2003 <= 24.0)
         If (feature 1607 <= 48.0)
          If (feature 1962 <= 64.0)
           If (feature 660 <= 51.0)
            If (feature 1542 <= 51.0)
             If (feature 1170 <= 18.0)
              Predict: 0.0
             Else (feature 1170 > 18.0)
              Predict: 1.0
            Else (feature 1542 > 51.0)
             If (feature 2506 <= 13.0)
              Predict: 1.0
             Else (feature 2506 > 13.0)
              Predict: 0.0
           Else (feature 660 > 51.0)
            Predict: 1.0
          Else (feature 1962 > 64.0)
           If (feature 2114 <= 4.0)
            Predict: 1.0
           Else (feature 2114 > 4.0)
            Predict: 0.0
         Else (feature 1607 > 48.0)
          Predict: 1.0
        Else (feature 2003 > 24.0)
         If (feature 173 <= 48.0)
          If (feature 680 <= 8.0)
           If (feature 1184 <= 0.0)
            If (feature 2617 <= 22.0)
             If (feature 1818 <= 0.0)
              Predict: 1.0
             Else (feature 1818 > 0.0)
              Predict: 0.0
            Else (feature 2617 > 22.0)
             Predict: 1.0
           Else (feature 1184 > 0.0)
            If (feature 2572 <= 18.0)
             If (feature 3006 <= 17.0)
              Predict: 1.0
             Else (feature 3006 > 17.0)
              Predict: 0.0
            Else (feature 2572 > 18.0)
             If (feature 2485 <= 22.0)
              Predict: 1.0
             Else (feature 2485 > 22.0)
              Predict: 0.0
          Else (feature 680 > 8.0)
           If (feature 2442 <= 67.0)
            If (feature 2884 <= 48.0)
             If (feature 111 <= 115.0)
              Predict: 1.0
             Else (feature 111 > 115.0)
              Predict: 0.0
            Else (feature 2884 > 48.0)
             If (feature 2997 <= 4.0)
              Predict: 1.0
             Else (feature 2997 > 4.0)
              Predict: 0.0
           Else (feature 2442 > 67.0)
            If (feature 2415 <= 7.0)
             If (feature 2339 <= 2.0)
              Predict: 1.0
             Else (feature 2339 > 2.0)
              Predict: 0.0
            Else (feature 2415 > 7.0)
             If (feature 2780 <= 38.0)
              Predict: 1.0
             Else (feature 2780 > 38.0)
              Predict: 0.0
         Else (feature 173 > 48.0)
          If (feature 1969 <= 26.0)
           If (feature 1851 <= 29.0)
            If (feature 1230 <= 70.0)
             If (feature 2744 <= 27.0)
              Predict: 0.0
             Else (feature 2744 > 27.0)
              Predict: 1.0
            Else (feature 1230 > 70.0)
             Predict: 1.0
           Else (feature 1851 > 29.0)
            Predict: 1.0
          Else (feature 1969 > 26.0)
           Predict: 1.0
       Else (feature 1102 > 19.0)
        If (feature 1522 <= 43.0)
         If (feature 1123 <= 41.0)
          If (feature 1416 <= 35.0)
           If (feature 1859 <= 3.0)
            If (feature 641 <= 7.0)
             If (feature 1060 <= 16.0)
              Predict: 0.0
             Else (feature 1060 > 16.0)
              Predict: 1.0
            Else (feature 641 > 7.0)
             If (feature 2004 <= 11.0)
              Predict: 0.0
             Else (feature 2004 > 11.0)
              Predict: 1.0
           Else (feature 1859 > 3.0)
            If (feature 1962 <= 82.0)
             If (feature 1420 <= 29.0)
              Predict: 0.0
             Else (feature 1420 > 29.0)
              Predict: 1.0
            Else (feature 1962 > 82.0)
             If (feature 2338 <= 174.0)
              Predict: 1.0
             Else (feature 2338 > 174.0)
              Predict: 0.0
          Else (feature 1416 > 35.0)
           If (feature 1095 <= 37.0)
            If (feature 2105 <= 208.0)
             If (feature 3068 <= 87.0)
              Predict: 1.0
             Else (feature 3068 > 87.0)
              Predict: 0.0
            Else (feature 2105 > 208.0)
             Predict: 0.0
           Else (feature 1095 > 37.0)
            Predict: 0.0
         Else (feature 1123 > 41.0)
          If (feature 2610 <= 103.0)
           If (feature 308 <= 6.0)
            If (feature 1130 <= 6.0)
             If (feature 1101 <= 17.0)
              Predict: 0.0
             Else (feature 1101 > 17.0)
              Predict: 1.0
            Else (feature 1130 > 6.0)
             Predict: 1.0
           Else (feature 308 > 6.0)
            If (feature 631 <= 144.0)
             If (feature 425 <= 13.0)
              Predict: 1.0
             Else (feature 425 > 13.0)
              Predict: 1.0
            Else (feature 631 > 144.0)
             If (feature 254 <= 0.0)
              Predict: 0.0
             Else (feature 254 > 0.0)
              Predict: 1.0
          Else (feature 2610 > 103.0)
           If (feature 2181 <= 1.0)
            If (feature 1566 <= 36.0)
             Predict: 0.0
            Else (feature 1566 > 36.0)
             Predict: 1.0
           Else (feature 2181 > 1.0)
            Predict: 1.0
        Else (feature 1522 > 43.0)
         If (feature 2691 <= 11.0)
          If (feature 2566 <= 239.0)
           If (feature 2311 <= 163.0)
            If (feature 2916 <= 149.0)
             If (feature 281 <= 179.0)
              Predict: 1.0
             Else (feature 281 > 179.0)
              Predict: 1.0
            Else (feature 2916 > 149.0)
             Predict: 0.0
           Else (feature 2311 > 163.0)
            If (feature 1649 <= 30.0)
             Predict: 1.0
            Else (feature 1649 > 30.0)
             Predict: 0.0
          Else (feature 2566 > 239.0)
           Predict: 0.0
         Else (feature 2691 > 11.0)
          If (feature 2861 <= 47.0)
           If (feature 2846 <= 199.0)
            If (feature 3079 <= 180.0)
             If (feature 2939 <= 215.0)
              Predict: 1.0
             Else (feature 2939 > 215.0)
              Predict: 0.0
            Else (feature 3079 > 180.0)
             Predict: 0.0
           Else (feature 2846 > 199.0)
            Predict: 0.0
          Else (feature 2861 > 47.0)
           If (feature 2504 <= 9.0)
            Predict: 1.0
           Else (feature 2504 > 9.0)
            If (feature 596 <= 37.0)
             Predict: 0.0
            Else (feature 596 > 37.0)
             Predict: 1.0
      Else (feature 2926 > 125.0)
       If (feature 2405 <= 9.0)
        If (feature 2524 <= 132.0)
         If (feature 618 <= 63.0)
